-0.7025449358832973 -0.11730997320154837 -0.792053702878207 -0.9079236593178003 -0.47126063070838137 -0.2857039719418294 -0.624465644226731 -0.29785653350333696 -1.7951670583308856 -0.9570850345377973 
0.0 0.0 0.0 0.0 0.0 0.0 0.0 0.0 0.0 0.0 
0.0 0.0 0.0 0.0 0.0 0.0 0.0 0.0 0.0 0.0 
0.0 0.0 0.0 0.0 0.0 0.0 0.0 0.0 0.0 0.0 
0.0 0.0 0.0 0.0 0.0 0.0 0.0 0.0 0.0 0.0 
0.0 0.0 0.0 0.0 0.0 0.0 0.0 0.0 0.0 0.0 
0.0 0.0 0.0 0.0 0.0 0.0 0.0 0.0 0.0 0.0 
0.0 0.0 0.0 0.0 0.0 0.0 0.0 0.0 0.0 0.0 
0.0 0.0 0.0 0.0 0.0 0.0 0.0 0.0 0.0 0.0 
0.0 0.0 0.0 0.0 0.0 0.0 0.0 0.0 0.0 0.0 
0.0 0.0 0.0 0.0 0.0 0.0 0.0 0.0 0.0 0.0 
0.0 0.0 0.0 0.0 0.0 0.0 0.0 0.0 0.0 0.0 
0.0 0.0 0.0 0.0 0.0 0.0 0.0 0.0 0.0 0.0 
-5.990951173699723E-6 -6.514245777250359E-6 -8.433942680678812E-5 -1.7171150285013772E-5 -2.9888997312594283E-4 -1.807163403268436E-5 2.586475606139223E-4 -7.676345545220527E-6 -3.202581000203732E-5 -8.996827608265365E-5 
-3.58549550072217E-5 -2.348435678248193E-5 -7.151694580563746E-5 -4.764626068272271E-5 -0.001029046468978673 -4.49770700598973E-5 4.2051352034680196E-4 -3.3314736712994706E-5 -9.279011784980347E-5 -2.4493964738226217E-4 
-2.5301750335330205E-5 -1.0260546533167455E-5 1.2592244173153258E-4 -1.1180792517024494E-5 -4.168364253982251E-4 -6.0163147880315284E-6 -1.6228694825915993E-4 -1.8368228120533217E-5 -2.5221405404043565E-5 -5.334821177778582E-5 
-1.0542396343970494E-6 -4.2752278725697127E-7 5.246768590079136E-6 -4.658663712667345E-7 -1.7368185002662695E-5 -2.506797916543879E-7 -6.761956415372913E-6 -7.653428652828354E-7 -1.0508919288089899E-6 -2.222842235614658E-6 
0.0 0.0 0.0 0.0 0.0 0.0 0.0 0.0 0.0 0.0 
0.0 0.0 0.0 0.0 0.0 0.0 0.0 0.0 0.0 0.0 
0.0 0.0 0.0 0.0 0.0 0.0 0.0 0.0 0.0 0.0 
0.0 0.0 0.0 0.0 0.0 0.0 0.0 0.0 0.0 0.0 
0.0 0.0 0.0 0.0 0.0 0.0 0.0 0.0 0.0 0.0 
0.0 0.0 0.0 0.0 0.0 0.0 0.0 0.0 0.0 0.0 
0.0 0.0 0.0 0.0 0.0 0.0 0.0 0.0 0.0 0.0 
0.0 0.0 0.0 0.0 0.0 0.0 0.0 0.0 0.0 0.0 
0.0 0.0 0.0 0.0 0.0 0.0 0.0 0.0 0.0 0.0 
0.0 0.0 0.0 0.0 0.0 0.0 0.0 0.0 0.0 0.0 
0.0 0.0 0.0 0.0 0.0 0.0 0.0 0.0 0.0 0.0 
0.0 0.0 0.0 0.0 0.0 0.0 0.0 0.0 0.0 0.0 
0.0 0.0 0.0 0.0 0.0 0.0 0.0 0.0 0.0 0.0 
0.0 0.0 0.0 0.0 0.0 0.0 0.0 0.0 0.0 0.0 
0.0 0.0 0.0 0.0 0.0 0.0 0.0 0.0 0.0 0.0 
0.0 0.0 0.0 0.0 0.0 0.0 0.0 0.0 0.0 0.0 
-7.771488819481109E-7 -4.3609793308164393E-7 -4.3008371887095165E-6 -3.296549982543256E-7 -8.96545585015207E-6 -5.684620748129833E-7 1.2369135326973544E-5 -4.5703613946818247E-7 -6.985279657374992E-7 -2.171461697755599E-6 
-2.9215671190347376E-6 -1.4258142276601982E-6 -1.6218989666576344E-5 -1.1795613014369555E-6 -5.508661655581079E-5 -1.8829486577781243E-6 4.048616302360211E-5 -2.931725066995534E-6 -2.301162676401752E-6 -7.821663973912429E-6 
-4.5205968189140946E-5 -1.0560093667011614E-5 -3.260700298578028E-4 -2.2515295892253323E-5 -0.0020626780073034765 -3.269861463307552E-5 4.2751092690124063E-4 -1.0438638461766874E-4 -1.9312229437114257E-5 -1.2068003449566208E-4 
-1.166633253479267E-4 -4.2824918020362685E-5 -8.076552011052777E-4 -5.371838891343355E-5 -0.00465486943133575 -7.634815414412293E-5 0.0013098864141591966 -2.3001700084274512E-4 -6.094828992604138E-5 -3.0660813862816395E-4 
-2.458848107696587E-4 -6.353545957380548E-4 -0.0010898647221675465 -1.29007832437342E-4 -0.004549989643914865 -1.4901126642627487E-4 0.0033879680101876032 -3.546851870500075E-4 -2.14270690924494E-4 -4.4334467944592864E-4 
-4.7436273270348484E-4 -6.75955734674711E-4 -0.0021871671459779813 -1.6244259250727523E-4 -0.004292573908917498 -1.926918490477908E-4 0.004376861802736575 -5.018611036015861E-4 -3.5795377619233647E-4 -4.963992614125239E-4 
-9.393831998596373E-4 -7.817105092498471E-4 -0.004196720563170513 -2.985078171663421E-4 -0.009383399617741308 -5.263595291773431E-4 0.005837022813129211 -7.40076780540788E-4 -7.447955169948636E-4 -0.0010219743356400643 
-4.734481437994125E-4 -6.895918809136418E-4 -0.005451690750385812 -3.7860369252889695E-4 -0.012670143698158642 -5.904088676354224E-4 0.007045393122207215 -0.001130678647037304 -8.642039732662162E-4 -0.0015806662232747196 
3.123567834416605E-4 -6.070351447206262E-4 -0.006856701423739257 -4.355493335362447E-4 -0.014602809074373793 -8.211357904126082E-4 0.008025082729371535 -0.0014132410130903313 -0.0011421954059895924 -0.00221368959640334 
-3.9271839545185005E-4 -5.848746475523974E-4 -0.006516432702445696 -4.581132173295507E-4 -0.012584632204428525 -0.0011412462952508113 0.005963840324910579 -9.574491068862442E-4 -0.0013738359514398745 -0.002198808061538533 
-0.0017261599822460398 2.877362811227737E-4 -0.007125176572729018 -5.158698790788481E-4 -0.010524867875219526 -0.0011630699530250895 0.0025332235402489535 -8.411609115989927E-4 -0.0014771270056633404 -0.0020495618098076494 
-0.0010233589547357497 6.178658186873064E-4 -0.0065123240498073534 -5.1021749194621E-4 -0.009490585185274774 -0.0011199965440374451 0.0025693541619404773 -9.287465196093583E-4 -0.001498648550857613 -0.002397060954288686 
-9.029138213486153E-4 -0.0014982315943045511 -0.0037369726197452624 -5.260235794237308E-4 -0.009602650620297875 -0.0010678722479571096 0.001688741319153338 -0.0010135287587241756 -0.0020103736284493748 -0.0031429380880903454 
-8.892212158249302E-4 -8.701220503662016E-4 -0.005758951518778919 -3.3205421822744537E-4 -0.006278640817050695 -7.112249572626671E-4 0.003886153836590316 -5.579919666223621E-4 -0.0014879120359417729 -0.002356590351762522 
-7.746483820652883E-4 -3.215126759829749E-4 -0.0038414941556481194 -1.671638205932935E-4 -0.0040758100131690535 -5.178550735427874E-4 0.004318727481912656 -2.5902069110365607E-4 -0.0010418013592573697 -0.0015773167923077262 
-6.484844558056661E-4 -2.5914586040468116E-4 -0.003009319690013524 -1.7021737324339416E-4 -0.0030911761049603375 -5.42257276039391E-4 0.0035261926780341363 -2.2297372422763837E-4 -8.167904631080397E-4 -0.0012111063891979067 
-5.283224237260977E-4 -2.1001783608031772E-4 -0.0020272387739003676 -1.610228651461726E-4 -0.0023183862830715783 -3.924974800274875E-4 0.00302152215039464 -1.5544280954528773E-4 -5.190650885433053E-4 -8.280883969794779E-4 
-1.828482772492447E-4 -9.27384546034696E-5 -7.116190488784133E-4 -4.984685211472192E-5 -0.0015519179504419655 -1.0160354641233615E-4 0.002225981683682149 -4.5035846623040925E-5 -2.875969663323898E-4 -4.1991280007474256E-4 
-5.271082040930475E-5 -3.0012002608398408E-5 -2.679521359876159E-4 -1.6870650875748944E-5 -0.001450056625219303 -3.7629818498825454E-5 6.928379134226866E-4 -3.154140372607992E-5 -2.0532983723904938E-4 -3.112804601170262E-4 
-7.754162721126567E-6 -5.680782436537538E-6 -7.216338119866482E-5 -5.204217275371266E-6 -5.771846081289409E-4 -1.5335453147508888E-5 1.3588059921529894E-4 -2.6334840504844156E-5 -4.786149987265473E-5 -7.061940666458883E-5 
0.0 0.0 0.0 0.0 0.0 0.0 0.0 0.0 0.0 0.0 
0.0 0.0 0.0 0.0 0.0 0.0 0.0 0.0 0.0 0.0 
0.0 0.0 0.0 0.0 0.0 0.0 0.0 0.0 0.0 0.0 
0.0 0.0 0.0 0.0 0.0 0.0 0.0 0.0 0.0 0.0 
0.0 0.0 0.0 0.0 0.0 0.0 0.0 0.0 0.0 0.0 
0.0 0.0 0.0 0.0 0.0 0.0 0.0 0.0 0.0 0.0 
-3.3545813470034405E-6 -1.1400570229686576E-6 -3.7665092787493928E-6 -1.4149464018371475E-6 -6.846040677757144E-6 -3.450865464606242E-6 1.8755808365263795E-5 -1.0870365725197162E-6 -3.049956109952194E-6 -1.6971711688650833E-5 
2.000777194129088E-5 -8.007888137947737E-7 -7.353750018623862E-6 -3.239645658068283E-6 -4.154640369154565E-5 -1.3620945402333638E-5 -5.128763197686895E-6 -6.421399110670403E-6 -2.6040185590357063E-6 -9.162940401006235E-6 
-2.029799283628336E-5 -1.3431041565739622E-5 -2.2184357549503612E-4 -1.2971865407850719E-5 -2.7714216590036655E-4 -2.6370189650847984E-5 3.7401511098110907E-4 -2.6799078016530165E-5 -3.6387635688308236E-5 -4.669793746318271E-5 
-9.799504774636342E-5 -1.0460526922782701E-5 -8.150703380740702E-5 -1.2708944385885927E-5 -1.9025268774917423E-4 -1.9703772016919476E-5 1.803238359343546E-4 -2.1542066670854575E-5 -2.3831950931266316E-5 -3.4951979996115214E-5 
-0.0010288951403342192 -9.58193546563284E-5 -0.0010103741171675752 -1.5002158756440045E-4 -0.003195066202083752 -1.6974350649283287E-4 0.001651530535423356 -3.781991447753263E-4 -1.937091010525876E-4 -3.011922383589941E-4 
-0.0016067551316444916 -5.923117719810199E-4 -0.0028346069404133175 -5.818996477974741E-4 -0.010619904760324981 -5.300127992589869E-4 0.0058407515878581276 -0.0010650397997715051 -6.25683651351854E-4 -0.0011000000373386852 
-0.003278330535852198 -0.0022990931482016084 -0.0038987257354260955 -0.0013262298350138007 -0.015178735831085125 -0.0013716537188598014 0.013750061989266862 -0.0017727253321654132 -0.0012640748532178141 -0.0016587269316087909 
-0.008075388060357744 -0.0040728173528611624 -0.004543389835250786 -0.0025109733398664194 -0.022039763783184674 -0.002523938074370676 0.025589192733365886 -0.002872599201929465 -0.002877543013220871 -0.00267237616749684 
-0.011491842229278851 -0.006234653009129489 -0.012505851471096332 -0.003350004397830508 -0.03973185148719763 -0.00425793339429361 0.041003524396087704 -0.005024207436098848 -0.005757823662553008 -0.005651092435022151 
-0.013147005939563697 -0.007689633372522615 -0.020619286097403194 -0.0033983771732609552 -0.056965889690848884 -0.007432367907795123 0.04365973495400715 -0.006597831945588953 -0.009041430222824132 -0.008798815915981783 
-0.01820106581244781 -0.00742116169251171 -0.032479622136888826 -0.0050558863821999886 -0.07206243256391184 -0.012423872680470386 0.05730015771448014 -0.00837055258068117 -0.014962551015739721 -0.013465683770140482 
-0.023080628838824342 -0.005417782361861098 -0.04860579121184628 -0.007560629673541374 -0.07682309975607256 -0.019677189933809156 0.06739346096607172 -0.009372674789271127 -0.02196034684342493 -0.018195392871998672 
-0.03106098319015192 -0.005298963828545937 -0.06708159879870507 -0.009305062353910884 -0.07656032342119598 -0.028412372150808326 0.0700476737996491 -0.010223200649165692 -0.03142956108609616 -0.023287720308581332 
-0.039735264964154283 -0.002087183542506847 -0.07755248155385856 -0.012189258960369107 -0.0713939087842865 -0.03274442378370812 0.06907469563830712 -0.01014781136872598 -0.037698306416442326 -0.028142805006009356 
-0.0467727433154081 -0.005931500782974483 -0.08229608217268317 -0.012252376774470513 -0.06216089604248606 -0.03166494689982699 0.07563929470913065 -0.009455327926115168 -0.039571398793560156 -0.03201511203809692 
-0.04532000848082929 -0.010235367579808391 -0.0803365959210738 -0.011154691487402696 -0.04719017937452232 -0.027456312044197365 0.07702039541252824 -0.007825162565132143 -0.03587536171509042 -0.028823748597716418 
-0.04100426994356928 -0.011015207788028747 -0.07114945166377129 -0.01033139016182762 -0.03234189574066184 -0.023670060078098003 0.07928259361145466 -0.006113057059511234 -0.029706637721421885 -0.022114902173449885 
-0.033405243178269664 -0.008854994700277898 -0.052737628937415224 -0.008249867297243052 -0.019132078793986988 -0.01943239700130253 0.06936627349824999 -0.004095706345930372 -0.022070046517742026 -0.015118641735217925 
-0.02193822184175868 -0.006080875106968226 -0.02997188810633253 -0.004648247267138397 -0.010931580690042839 -0.013847910009155045 0.05436337133263254 -0.002292744232034528 -0.009649457310242304 -0.007136190336196456 
-0.010598798567716464 -0.003070503802119973 -0.016490462434397366 -0.0023627909003385247 -0.006724133246249864 -0.008178885775695283 0.04236778787385019 -0.0012354793884838517 -0.004095471412697586 -0.0032445479360584633 
-0.005065562457208448 -0.0015656084444630003 -0.009074932794534207 -0.0011947606270451719 -0.004661149968466229 -0.004015637851740876 0.024996612026186506 -6.692863401852154E-4 -0.0019384575167097516 -0.001726341262023694 
-0.0019328967315205752 -6.108212025932224E-4 -0.0028023762709112896 -3.802074999925803E-4 -0.0021409599691423484 -0.0015029631370950208 0.010068190449772538 -1.8339848285564765E-4 -0.0011360144966758633 -5.566741998065003E-4 
-6.170377207884134E-4 -2.2067697625722534E-4 -1.139843520609988E-4 -9.162326801252782E-5 -7.321078804474667E-4 -8.000420328094576E-4 0.0029698977571867165 -5.8929863450813715E-5 -7.701372575706134E-4 -1.3392839853222733E-4 
-5.383008357903749E-5 -4.062757231808926E-5 2.9348547326870066E-4 -1.3079519339588617E-5 -2.11868897962024E-4 -2.298988763225184E-4 -5.475155836067327E-5 -1.0147198166994175E-5 -2.991631948378318E-4 -3.1785468357353634E-5 
0.0 0.0 0.0 0.0 0.0 0.0 0.0 0.0 0.0 0.0 
0.0 0.0 0.0 0.0 0.0 0.0 0.0 0.0 0.0 0.0 
0.0 0.0 0.0 0.0 0.0 0.0 0.0 0.0 0.0 0.0 
0.0 0.0 0.0 0.0 0.0 0.0 0.0 0.0 0.0 0.0 
-8.54460917342449E-6 2.7111988876062814E-5 -1.6781095518990416E-5 -7.1824693546650046E-6 -1.7652433627970387E-5 -1.0161820167346817E-5 -2.435300889714255E-5 -3.878260626380812E-6 -2.436359898020865E-5 -3.9788172666143345E-5 
-1.9809949339534994E-4 4.7556432531329787E-7 -4.9891725414203614E-5 -2.7395527775219362E-5 -1.5087194096049858E-4 -9.538355768542203E-5 3.7475870696101365E-4 -2.6815766583606357E-5 -2.320315295607171E-5 -4.374910587298073E-5 
-4.5871263835111666E-4 -2.8289670697993725E-5 -2.702434323598445E-4 -1.0526669123251417E-4 -1.7911349782605968E-4 2.021403818005219E-4 6.948354677754982E-4 -9.770617819134958E-5 -6.526521170484992E-5 -6.197833652925266E-5 
-0.002266273035670177 -3.2264346096829E-4 1.7009076319860546E-4 0.002455765885814637 -0.0010221816449411819 -0.0016555334701294992 3.287706545605241E-4 -3.779530523846787E-4 -5.368221056879919E-4 -3.1625961226856457E-4 
-0.005215283472135766 -0.0013187820561091196 0.001670951531142973 7.2767999837398E-4 -0.005886146096387798 -0.0023850390766914633 0.0027711822890641646 -0.0012618343760560202 -0.0016273643332399607 -0.001159686678874553 
-0.009264897495255298 -0.005177119432511136 0.009089595244262672 -7.009169276646605E-5 -0.015973368069317515 -0.00475483883555922 0.006014599089003582 -0.003315677368635787 -0.004584810551035112 -0.0028160644901886493 
-0.014592763784870991 -0.013840903352417147 0.02298194103992944 -0.0021921951665237306 -0.02767971861247854 -0.007847867869925565 0.013878636480636246 -0.006716616954587936 -0.008305403048506861 -0.005091069005377967 
-0.02930621960514412 -0.026030230635704338 0.04562943992957159 -0.006967436869183858 -0.04783521878373259 -0.015646386536000083 0.02127829068462841 -0.011070835766088668 -0.016321309711753315 -0.009578531821688897 
-0.043447736925908496 -0.041729042116486995 0.053101214331675146 -0.007654074059493958 -0.07673016839476221 -0.023235876194697403 0.02846300943432308 -0.017142570284002828 -0.02743403669916405 -0.016616586673786488 
-0.053175323887916764 -0.058031698642677626 0.05056620221052823 0.003151520585284771 -0.10709917565035756 -0.03676704956851889 0.027006292009639873 -0.02280178318009777 -0.043786374241513014 -0.02500858479692629 
-0.06529658906879535 -0.062062076854348225 0.04355645729753773 0.014943299699650405 -0.13411337264672893 -0.0435375712069648 0.028011708534726957 -0.02734164867110594 -0.06148250880513467 -0.03468526276145826 
-0.07654778907374352 -0.05755767889917077 0.02610150359071981 0.014577208269636072 -0.15339470407215455 -0.05841193360713338 0.049265015253091515 -0.03187862472102593 -0.08382399033650394 -0.04669106779175638 
-0.09861918904914045 -0.05235776196921676 -0.015458284458340837 0.020894029611792105 -0.15612069420844216 -0.07204972823845406 0.08340605097150673 -0.03411419860973551 -0.11723589442271053 -0.06244226645113612 
-0.1129674747154405 -0.04190878188949294 -0.04843212715172295 0.013852804007919368 -0.14745483899211137 -0.07933910443401333 0.11719134331906912 -0.03485466340962017 -0.1400558106751963 -0.0752079171877868 
-0.12265488684246398 -0.04282197685975491 -0.06393261350692477 0.006996222182242492 -0.12788777180928892 -0.08107654645885866 0.1494667768461437 -0.03192329436206144 -0.15978071195532767 -0.07753901238088598 
-0.12741030798003383 -0.05225087007062746 -0.08702841590137023 0.0029669322946293533 -0.106927414255658 -0.0755943826050331 0.19084076807052558 -0.027573174826014006 -0.16546405327158115 -0.0709595149049057 
-0.12258095318913362 -0.05330561921675465 -0.09559369275143922 -0.0017093321588694025 -0.07882903572105102 -0.06235409424875218 0.21865812185260952 -0.021902664243044247 -0.13693060669220158 -0.05529493814568351 
-0.09804141804458869 -0.041694866938452445 -0.07841956673668823 -0.004976779761866653 -0.04614373437262861 -0.049198965604242174 0.21973022911410217 -0.015167278968825495 -0.09599913263813498 -0.03832974561953381 
-0.0675682809650653 -0.026477893138241424 -0.0530552242854676 -0.002950018291691339 -0.022070776425799448 -0.026517404520485004 0.18467225053803746 -0.009508596114852044 -0.04781421073611341 -0.021339497757463133 
-0.041655252862320906 -0.013610365532511659 -0.035100437767759785 -0.009498856917581008 -0.008385798260478203 -0.008340556975825855 0.1309570113929539 -0.0054805449030975225 -0.021457866945158447 -0.010903202337800346 
-0.022712873772232217 -0.005678356542630121 -0.02069643586523143 -0.007538462588651754 -0.0028557829229087167 -7.379973452923966E-4 0.0782594233378898 -0.0026299214597126815 -0.007508749217363425 -0.005221406155395472 
-0.008835903049326684 -0.00319685954512032 -0.010591657910925525 -0.0035802561492153506 -2.91957038352074E-4 -0.0025703994256759837 0.04139319916125022 -0.0012169591747806757 -8.727739069585703E-4 -0.002315898114825971 
-0.00305583827393561 -0.001735898223535978 -0.00352393558176376 -0.0013777466413913214 -0.0011537298874000075 -0.0017206749319537574 0.020594990294158465 -4.3650367492028533E-4 -5.054714669359644E-4 -8.07092771867546E-4 
-9.893650350585232E-4 -3.9615451834559064E-4 -2.2240815421715665E-4 -1.41431431428707E-4 -2.5553390986774355E-4 2.479402721457679E-5 0.0019684233099178917 -5.647958235433992E-5 -3.5211291445648186E-4 -1.7194318580673513E-4 
-1.7391063355517557E-4 -2.4110645258217702E-4 -5.7588434384561346E-5 -1.2848927812023702E-5 -5.078029357258925E-5 1.4759231251545864E-5 6.35592959785289E-4 -3.915783658678097E-6 -7.124076566856955E-5 -6.5314813324821105E-6 
0.0 0.0 0.0 0.0 0.0 0.0 0.0 0.0 0.0 0.0 
0.0 0.0 0.0 0.0 0.0 0.0 0.0 0.0 0.0 0.0 
-1.1664866738403247E-6 -1.2107633460036468E-6 -1.7557094008888254E-5 1.557764823433674E-5 -2.573455556237223E-6 -6.753052322967695E-6 -1.4683940035003321E-6 -8.672060616209492E-7 -2.326853874375608E-6 -8.569549179782151E-7 
-3.51138645254377E-5 9.308971639208488E-5 -7.201705469359293E-5 3.337264231242599E-5 -1.8059648190171413E-5 -8.125977473807144E-5 -2.0249777798072327E-4 -7.981095469820294E-6 1.5167010988377013E-5 -1.6026365485941413E-5 
-7.298760478083225E-5 -6.302729988880234E-5 -2.536461796710162E-4 3.9747502007177746E-4 -1.1782871875818018E-4 -5.633706265862189E-4 -8.232969343875652E-6 8.309267581279736E-5 -1.6130373460206078E-4 -1.012972991535904E-4 
-0.0013297453174464075 -3.2434675128929986E-4 -0.0012491053517304982 0.0042997685888442605 2.5700177529042905E-4 -0.0029257947582409837 9.608524655452244E-5 -2.3856162639450217E-4 -0.0011203893566806484 -5.948471066053445E-4 
-0.007602657137742191 -0.001714772074214325 0.004778037823861428 0.014970028267858369 -9.334562724510043E-4 -0.010931611220653021 -0.0033183089808514012 -0.002568751644441143 -0.005088850407208058 -0.002705551694133475 
-0.0160372247634308 -0.007792553438527248 0.017504655767790322 0.02332894412616219 -0.00828748262208161 -0.020027539496240043 -0.01186024880702847 -0.0052189348968114 -0.012923411806134322 -0.005575554419362281 
-0.02812144898542651 -0.022307681195289357 0.040747988002809446 0.035136853433263476 -0.019382193485326066 -0.03447427767991772 -0.0181527824477203 -0.012461750051135607 -0.024842920798849578 -0.01146634045089013 
-0.04497647593814153 -0.042177194201975216 0.07606838494098356 0.047504519943115754 -0.03899316076850524 -0.058800669285794575 -0.01754060387256987 -0.022197971694090258 -0.04059060682256719 -0.021036767662264012 
-0.0665332644755644 -0.06903187614986958 0.12284636896784454 0.05467312389184058 -0.07115945782936117 -0.07534710149340278 -0.022471458451070635 -0.036206866617958744 -0.06303803265968039 -0.034992500423010275 
-0.08549170678212333 -0.0844616948651398 0.1485424189766927 0.06937296576074815 -0.11383954598796114 -0.08337009141959983 -0.02618652055381884 -0.05376706566913503 -0.08602119512000783 -0.05204236945215356 
-0.0955704743350373 -0.08212848684683731 0.16698052330592164 0.07274916965171437 -0.1493908022811275 -0.10048993594781841 -0.06704573652673171 -0.0730669896854318 -0.10537819936180903 -0.07486708087562745 
-0.09622419300850066 -0.04803512221766755 0.1748434882684044 0.05195459725270031 -0.18461357726318062 -0.13615050098433057 -0.08526506154247797 -0.10046277158571995 -0.11995366852479554 -0.11075293065189674 
-0.08137841884361673 -0.011525498387783559 0.15955268055810162 0.027114050414225398 -0.20882717199948114 -0.17058985397270404 -0.08217785730586068 -0.1259912791622145 -0.12104688692394655 -0.1501782249016972 
-0.07411246151918292 -0.001553229685656589 0.13969847144339348 -0.004286159494642475 -0.21245678197590448 -0.15305237337795416 -0.060134133841206264 -0.14182483406521906 -0.11516562314986005 -0.18953974787408004 
-0.055992905754781316 -0.0057533012526862415 0.10828443359739613 -0.018609067555559917 -0.19998500139489642 -0.11632989416309598 -0.02250375700072353 -0.14670160539925667 -0.12923180167071563 -0.2161621410123252 
-0.07436828762098407 -0.023086344488654934 0.09380353082491943 -0.04074248245060363 -0.16412067093968472 -0.07994981231857999 0.047643315731130086 -0.1370413389532115 -0.16222790346910165 -0.22244308839546603 
-0.08331162814899024 -0.023610510760038072 0.0244086669202581 -0.06600994604212332 -0.1308652447272523 -0.06048275527833862 0.13206870304024096 -0.12110476789884508 -0.20646468671334767 -0.19737603104904997 
-0.07702180789260762 0.0013796085497763918 -0.03174110857365277 -0.05545899490437683 -0.09704355345465882 -0.03718653841961546 0.19100819961443408 -0.0979951761254024 -0.20552509677538694 -0.1543042458135112 
-0.07087938434291707 0.04561977755939553 -0.07748949460062458 -0.0670838899053603 -0.049480902072249755 -0.029098039213929266 0.21055054590049527 -0.07360826370959578 -0.18748487423415205 -0.11365368033574406 
-0.06254100858514863 0.06620790505230383 -0.08420938399115616 -0.08085016550128542 -0.007199547163497333 -0.0017420820712746449 0.19277485809119427 -0.05003993808884544 -0.14721579264516835 -0.08043432309137462 
-0.053199428710047236 0.05899828213994779 -0.08423135659788346 -0.0811099256333236 0.011916289029420912 0.05434647731817117 0.1422947086253893 -0.029268048471896277 -0.10955665098665818 -0.05538414103172151 
-0.04074226551193979 0.03411724792206935 -0.06486784470487977 -0.060950323971541785 0.02404945894035557 0.06979042711026219 0.08372013320066109 -0.017260601085314818 -0.0751192736922761 -0.03538756583999482 
-0.0277250073884963 0.010252101327907793 -0.03854496445527069 -0.04429100103734261 0.023151241424248306 0.06624466469688405 0.04363152970848693 -0.00838800268202281 -0.041970101160335074 -0.019569826800216645 
-0.015487178622498415 -0.004943673445911262 -0.017046340037229858 -0.01544112096286255 0.01092922211955655 0.03758071809954512 0.016147368182194897 -0.003141829198329232 -0.013267828698962732 -0.00811078009387232 
-0.004605282513506852 -0.0034987474820151448 -0.0031673141301129352 -0.0021350747837503804 0.0014138155969629091 0.009348339856683525 0.003150841367762584 -6.889979478075271E-4 -0.0014254684450618412 -0.001695126775657709 
-6.770195647940163E-4 -4.8824006580926817E-4 -3.043402683855592E-4 -1.527739367446024E-4 -3.363281870323261E-4 0.0010311635148791847 -2.4624628160965244E-6 -1.0130959791695376E-4 5.033693399256015E-4 -3.585769736625789E-4 
-2.4108790801436135E-5 -2.0215858610295696E-4 -1.3779766545220194E-4 -1.7658527452165667E-5 -1.1093637703647288E-4 -1.7612863722695705E-4 3.8620559120898556E-4 -9.428374292457E-6 4.013130518078527E-5 -1.5804611439946156E-5 
0.0 0.0 0.0 0.0 0.0 0.0 0.0 0.0 0.0 0.0 
0.0 0.0 0.0 0.0 0.0 0.0 0.0 0.0 0.0 0.0 
-1.8490152022206184E-4 8.113501717225648E-5 -4.649123352577623E-5 5.7969477081947326E-5 -8.108451323238427E-5 -3.449018609846698E-4 1.7493539778545044E-4 -6.881100989139857E-5 -1.1523980248436344E-4 -3.541729082744464E-5 
-5.041258583648537E-4 3.251722715414549E-4 -5.103085584912873E-4 0.004050239974134073 -2.2069640178947608E-4 -0.00299700559431994 -0.0018244718883766598 -1.367560328966801E-4 -0.001889882217104558 -6.217992095484456E-4 
-0.004813279510917907 -5.084101612596213E-4 -6.877281680125965E-4 0.020299648989450643 0.0014250458081552153 -0.013258797596291502 -0.0025166387361786374 -0.0019957878072837903 -0.006643366110611339 -0.004383592790786172 
-0.01767096363344947 -0.006348984109363408 0.010890624575743905 0.05086627315723478 0.00428012009064579 -0.03346768701840378 -0.014422175226128674 -0.0040233913595959705 -0.01954335953495458 -0.015670983818670804 
-0.033682749406115514 -0.022140507850961468 0.03304629763492722 0.07717895026462483 0.001829517969109693 -0.05901601164456887 -0.03581489991961921 -0.014152065039445938 -0.04359710975499335 -0.034236037020740136 
-0.06237478864043777 -0.05230382473074282 0.07534629725390754 0.09227612638763588 -0.008220131893030643 -0.07712056506239319 -0.053925297893667734 -0.027521598455536932 -0.07449384489672009 -0.05766542164145113 
-0.09319063535886046 -0.09394597106709751 0.12297971682471225 0.09647182597094763 -0.027899038520021072 -0.0947909544311162 -0.05381400689360289 -0.046435172322103625 -0.10803834283520083 -0.08542235097839403 
-0.1151501619037811 -0.13092720227797316 0.1602058288252977 0.10693425998292488 -0.04782491243285605 -0.09747361108331451 -0.06923693179259535 -0.07271952067254353 -0.12716177837424392 -0.125680668611501 
-0.11530775092519799 -0.13852685139170595 0.18951847453675136 0.11883720371489777 -0.0891626330426287 -0.08869580416612984 -0.08464290962785598 -0.10658236676935257 -0.13896871510389472 -0.14832393055800216 
-0.09918671707212057 -0.116714973509788 0.20691711752577452 0.10606610966386074 -0.12366464669286333 -0.09189195478490454 -0.13496942928433242 -0.14658117313171698 -0.09688880514295489 -0.15071999130027983 
-0.06539592770086447 -0.06514712225747107 0.2022994482952336 0.07934299513255547 -0.15667919398728294 -0.1279193896303892 -0.1451255511688006 -0.19369586031319888 -0.03540353414398792 -0.1809258306445839 
-0.004299035291828021 -0.013399169584940399 0.20442025481327633 0.049775264715280106 -0.17190699606200482 -0.16119380835812996 -0.17551024717104793 -0.24332137620589805 0.009083496252925762 -0.2272911966388946 
0.030038104946034757 -0.004904314746444538 0.20411927205449612 0.004854065142258141 -0.1558591765957655 -0.1581639784505805 -0.15637246927692555 -0.2775712946479338 0.06368016449001096 -0.2969963144797359 
0.05316733824390897 -0.03173423268665731 0.20786471994117878 -0.011839027779419496 -0.1296018435619521 -0.14915295225972866 -0.1276268725521779 -0.29146413570960394 0.09320101913379569 -0.35937589395641617 
0.04609069526172877 -0.07134594976433373 0.1892263353361931 -0.03399934633471453 -0.06838551439077695 -0.11963038572214935 -0.06869875758248607 -0.284294964180644 0.10113025001057833 -0.41434777171630066 
0.03940914773281354 -0.06084574210374616 0.14118399717417202 -0.0998341982702612 -0.025995946629063918 -0.05805532941519778 9.637108430855908E-4 -0.2671692377510575 0.09085202649626271 -0.4027247335857414 
0.02155598616471631 0.009496507973970291 0.05489095852577429 -0.11885992435497655 0.007796768665593517 -0.011210714743248673 0.06294787252485472 -0.2298093157014154 0.023960066395274992 -0.3575041297841662 
-0.0061122709208754735 0.07596685618273873 -0.03788616054995559 -0.12009471199377145 0.03384254868949804 0.03800021058439894 0.07910417830404577 -0.187912107914088 -0.05050912845093608 -0.29257397923011613 
-0.04325087922217293 0.11140548612448013 -0.0726108553393458 -0.13219799840484042 0.05497575143440482 0.11153475440086508 0.06195820696504244 -0.13821899075882846 -0.10992212447372716 -0.23419269814762583 
-0.055702450802094974 0.10067003516696885 -0.07991630069649563 -0.15211771995890097 0.07278893430247067 0.15892169531051026 0.027676208962874194 -0.08974422508330407 -0.12364756033186768 -0.18546459461668757 
-0.05794841245185925 0.055766560940111905 -0.07543579792436186 -0.13905586153601102 0.09176789445049816 0.19992379842111155 0.004862983229986382 -0.05736283245084761 -0.11082396216452836 -0.14029702956791207 
-0.059229387756974096 0.013329301369941877 -0.06829964952333387 -0.10091236148872501 0.08830697600402224 0.1831683346383567 -1.540678999800573E-4 -0.0353196135031823 -0.08601375103453139 -0.09645641062089028 
-0.0433118821959657 -0.007532409307873763 -0.035874055048121876 -0.04519420874080631 0.034278115862053184 0.11546585573402739 -0.0028481578228516237 -0.016164114292960993 -0.04847301414423871 -0.04773875353015859 
-0.01736518144558089 -0.010605370350665957 -0.008671168857503218 -0.01044751343495552 0.001924558539699763 0.04056175977727542 -0.004353190955171411 -0.004933054661191322 -0.010453832881034771 -0.012825590198058451 
-0.003883829393683573 -0.0020439511822109165 -0.0012804460689507268 -0.001088622194421861 -0.0021130837291048767 0.00985038361466278 -2.650433365662419E-4 -0.0014109750301463664 -0.0017686988530052233 -0.0018656957699505858 
-4.547753019196987E-4 -2.7705322738787E-4 -2.088910616950421E-4 -4.943725637912383E-5 -1.1908739568739343E-4 6.0953631626371984E-5 5.109504251105694E-4 -8.929249248431331E-5 -2.618149090941303E-4 -3.084720107596757E-5 
0.0 0.0 0.0 0.0 0.0 0.0 0.0 0.0 0.0 0.0 
-9.466903286373022E-7 -1.1244754264468203E-6 -2.6423651731401345E-6 2.113094830538109E-5 -4.313637166394282E-7 -4.008944771693996E-6 -3.5388835729354813E-7 -1.2859816273217038E-6 -2.214114667551769E-6 -1.147093279089087E-5 
-2.44381077021294E-4 -5.513238521602589E-4 -2.8125360232574757E-4 3.429860123604762E-4 -3.8492413087328007E-4 -3.348418904290235E-4 -1.1100843398427578E-4 9.260213717560379E-4 -5.100138502006473E-4 -5.135957562316327E-4 
-0.0020177540512248526 -3.0839856741903156E-4 -0.001866996420926301 0.013878763829313703 -0.0015857090998372101 -0.009978492885921274 -0.004453445395211888 0.002189610107446457 -0.0055425829524269055 -0.0036455612190206548 
-0.010755313942112361 -0.0035131055191348877 -0.0029060431915421867 0.04609989313983887 0.0034086716026581103 -0.03218538178533307 -0.010707483267659808 -5.110793801372011E-4 -0.014874430516811902 -0.016502649842659894 
-0.02632283780357615 -0.017242527663399364 0.012458987511704923 0.08048914497870391 0.010420321781139611 -0.056426195787551335 -0.02896424815183529 9.047955280613675E-4 -0.03681500702033087 -0.04572395780654306 
-0.052159425699363514 -0.043749558232041415 0.04555503095728118 0.10714668705033151 0.008177883347625791 -0.0825893834522326 -0.05582265941827239 0.004222794779490262 -0.07399637702351203 -0.08695639658502467 
-0.08862671521315099 -0.08647996034303687 0.08585187474661997 0.10299204373878847 0.0023192307377774917 -0.0985176697453685 -0.07341832621431059 0.0015878920071798416 -0.10435485051633332 -0.14021222389645216 
-0.12118941452725564 -0.13928501592584225 0.113058137333071 0.12285277487612066 -0.015333293613351735 -0.08959267852184523 -0.0810456943035939 0.004078501078192201 -0.09831424903222312 -0.18100610825124158 
-0.13534218586779312 -0.18425430788588854 0.12340418532126488 0.1356286910956359 -0.031595391385182144 -0.06186823710918044 -0.0987843651320069 -0.006734033385516057 -0.09147864271122348 -0.19313556412575092 
-0.0975869940043047 -0.19105799934772974 0.1293488736292206 0.1414788853900491 -0.060308967383683604 -0.018249441735188273 -0.12432598449616689 -0.015215765524056011 -0.06716148885262158 -0.16457457868856165 
-0.055246989177075594 -0.15564627506332437 0.13219846428615784 0.14151077376892954 -0.10769665431620812 0.007413204044213188 -0.14000111623696848 -0.039295348116373884 0.0017969171831632152 -0.0774676509243126 
-0.005412769188385594 -0.10464008437141227 0.13250640474461614 0.14215383906657889 -0.1513322109562864 -0.018520699484031546 -0.1492099714432347 -0.09272862870186863 0.0376180174960127 0.0144108803711289 
0.045044257402338805 -0.0669848136180839 0.1240077629595502 0.13108362242117352 -0.2196124778415418 -0.060738519289570386 -0.18481403141281996 -0.1676211151090914 0.03034437491083387 0.11480573333942304 
0.06852025147579853 -0.08634104303451302 0.11166151141548848 0.10107951821520897 -0.2955601942945227 -0.07497187631774185 -0.19400478588522935 -0.21938232558671555 0.04374647245615166 0.20190636476495083 
0.08789680061568894 -0.1426134256452752 0.11068971021319358 0.08981396370476158 -0.30712275342524686 -0.11622700075870872 -0.17574573193021845 -0.23727623167115006 0.0982947694683044 0.23097977008202134 
0.11469552600700532 -0.16840272999090763 0.10943946732454886 0.06937548867845733 -0.22173963711864178 -0.10854482892479685 -0.13960131024189512 -0.20970188078641325 0.09809040925287765 0.2033498901336903 
0.13150758650965 -0.13316109977608956 0.08274741035346393 0.008005613286303578 -0.11476521551028068 -0.044339073295487294 -0.12058410431422928 -0.18785008803990766 0.07296942444738624 0.1093759869512343 
0.1075408202914065 -0.033003848903466915 0.024766800089779363 -0.03003756726850686 -0.036512015270397005 0.016577889897577823 -0.12404378497303238 -0.18076233623063112 -0.003937424030306568 0.002552881277509717 
0.05955145115650421 0.038745088359064296 -0.02630753439482493 -0.06548945968326929 0.02937634738804566 0.07524524229795246 -0.12696363401008293 -0.15049034544545897 -0.012681371151746217 -0.10846546392689686 
0.004620934057833348 0.06643928775264171 -0.059929030877208515 -0.06701527581800572 0.06978416881193983 0.12218925802105045 -0.13491686589251903 -0.11924098493739035 -0.04510091495684922 -0.18009554997660254 
-0.02228242895620847 0.042796463619463126 -0.05712055226603043 -0.09995161737222143 0.11725776983754711 0.17019229432433672 -0.1260456001516578 -0.08590728078629777 -0.04448061667181927 -0.22788973170677582 
-0.04681016046747617 0.0035507620745355603 -0.06825643937683427 -0.14328372196890052 0.1502861336851044 0.2446878976120597 -0.1015837228626383 -0.07230918679641185 -0.050595851945445 -0.22565934847491606 
-0.07629073313665251 -0.0225514181491499 -0.08249823343090282 -0.13464376953315818 0.1265440994965983 0.2901546734886311 -0.0717232064796079 -0.05986637621527412 -0.04709324243474803 -0.1745372108144276 
-0.0773633088182741 -0.0298602874962161 -0.047589750032945265 -0.07221650995414194 0.04265182504982074 0.24007931718390121 -0.041739231348086846 -0.03727841616804323 -0.048205618597494136 -0.09871988684101397 
-0.03895785571464286 -0.0186214690235464 -0.015003790970963502 -0.023071671985695694 -5.629728104726021E-4 0.11197897550472173 -0.01639773375693449 -0.016780811718146174 -0.02220196510488446 -0.03451399074161472 
-0.011119767423588412 -0.0032001146253838536 -0.002379621124676965 -0.0032299635570518822 -0.0017273349631626914 0.028506389189622977 -0.003907255364206251 -0.004756429699709094 -0.007155375303736414 -0.0077141399552251855 
-0.0017600150843408594 -4.217195257067241E-4 -1.901029321630749E-4 -1.3698088907766845E-4 -5.570202069959489E-4 0.00259478602575753 2.0347463760861262E-4 -5.256784076468217E-4 -3.688757151260921E-4 -9.195851069364099E-4 
-1.3437431259501808E-6 -1.0563119048951696E-6 -4.043476584763618E-6 -1.0589690483808198E-5 -6.9426223982439205E-6 -2.592743978571985E-6 -1.2209792257025782E-6 1.21713662340916E-5 -5.36235625567789E-6 -2.214411277706926E-5 
-1.456027111782407E-4 -6.841773950665214E-5 -3.0295420525744583E-4 7.616540375115829E-4 -1.3641947651647988E-4 -2.5379235572505567E-4 -4.901189867389545E-5 3.629255578786354E-4 -4.081080671561715E-4 -7.06584656928222E-4 
-0.001622356951491213 -5.474755040278691E-4 3.5717135884199316E-4 -0.0035459032453225804 -0.001189536044398316 -0.002380243763867059 -6.605383445740153E-4 0.0036229822641731073 -0.001805445696089325 -0.0028065368159051305 
-0.005695804590224961 -0.0021510774274061577 -0.00385853023336297 0.012568702543877293 -0.0028664032520615453 -0.018142506143816923 -0.008025059175253289 0.01082074766627918 -0.00843292911518262 -0.012915206103146407 
-0.02111147308048327 -0.007206006771117817 -0.0029506001677562024 0.05790885142021959 -0.001950687963470951 -0.057383864128787015 -0.019141573943830276 0.015855006421753956 -0.02056843646324243 -0.044066010523110925 
-0.04118365749267919 -0.02801890949014028 0.017705865529957676 0.08816785285398722 0.002541424562564378 -0.08081007169634748 -0.04287686681273182 0.037565607270641066 -0.041658374888653274 -0.0980305486590638 
-0.07367795131221136 -0.0665583541088978 0.057500094104508674 0.08572822180147045 -0.008996839373591227 -0.0898947964506067 -0.0716382517998081 0.06799880689288998 -0.06219648146624729 -0.15769450810298646 
-0.10970182571789405 -0.1088128974154814 0.061371773010147235 0.06207944103759693 -0.012204995504871924 -0.06827382233105621 -0.07918586515576417 0.09636320527192256 -0.04381615327458675 -0.2153789952625858 
-0.12743474759848777 -0.167373202999379 0.061520762788244844 0.05270484903447331 -0.027788329434370748 -0.01553653569726432 -0.08463236935152046 0.12351968325722709 -0.003340864405930613 -0.22523820371128145 
-0.09715724217514776 -0.20945118151484274 0.04698918053982124 0.04533367911585226 -0.04141108141369189 0.02429931964554343 -0.09898179746026568 0.14262872694358658 0.00820560208238406 -0.20296188230546594 
-0.056577291985976684 -0.22937403612395077 0.057467303898461664 0.03692537954790822 -0.08742596884600946 0.08531860764340425 -0.1212318337361897 0.15054980297100615 0.0343134370013048 -0.11562443025283448 
-0.0183991442197325 -0.20642550221334266 0.08105054395173562 0.05581760890587869 -0.1641306225665138 0.09844288476725327 -0.13240448267245913 0.11311116265986343 0.03203217333444815 0.0046692775915456374 
0.0096493154237512 -0.14062872014410344 0.07086409385666241 0.08041743467891822 -0.2561832604029834 0.03546625188117309 -0.15806364847856696 0.05363273126194301 0.00344404150521512 0.1501212338130073 
0.030886841328652888 -0.10266247561194798 0.054605310081602625 0.06673052591464951 -0.35485773214386873 -0.048302926000021264 -0.19434398303750994 -0.042809602161645234 -0.04307484417823475 0.3159551938817165 
0.04838854016271696 -0.12226078332277433 0.03414198695650313 0.07415073624091213 -0.48607977310377526 -0.0986442547825426 -0.19899003167096924 -0.12689287937541224 -0.08913372626653367 0.496289196480859 
0.07956275211281628 -0.17417148041925196 0.0011248079262219438 0.08689503972640354 -0.5300012887360376 -0.1479918139896781 -0.18782967562446898 -0.14178691394720686 -0.056211487747712556 0.5714975210981297 
0.1248984982087172 -0.19182036314244244 -0.012281869084003031 0.06566464148614427 -0.4170298253053888 -0.1157782249105871 -0.20970263220163546 -0.09296718417411699 -0.060123110639671365 0.4763914475843218 
0.1674920321868166 -0.14438279133414006 -0.048264940409377025 0.03809184972205564 -0.2484492833246409 -0.053309043902225156 -0.2528596283197921 -0.037367737248335225 -0.09677743734349005 0.2606148760687924 
0.15022862044925026 -0.07001914857610671 -0.059723801869297696 0.009077451491233774 -0.12382682505626184 -0.0025413374245917236 -0.30403793027687215 -0.012158402645594011 -0.07097578003418874 0.0853045756733219 
0.08470381166669708 -0.014464178434255971 -0.07625216916410693 0.021874128898887044 -0.05265248690350221 0.03770350357276036 -0.318233320875778 0.0020720020823255226 -0.06459509250514722 -0.03452434529189814 
0.021680769671525303 -0.011879020530794673 -0.05990921236170525 0.03684797328585451 0.010123438269782988 0.07963667446302121 -0.288511801836734 0.009465624879796849 -0.0011430277448935308 -0.1087951112096262 
-0.01773668096323063 -0.03666412377668875 -0.03327491001827118 -0.019788278970225715 0.08603499392481853 0.13564649137804435 -0.24330143559707068 -0.014875444424376414 0.034886255476759456 -0.18829326442256505 
-0.03684421499662291 -0.05694447209984412 -0.036967841685628264 -0.09721637062265104 0.11639312706637722 0.21813444778674007 -0.1917124721947407 -0.03616380487986555 0.04864470962582749 -0.23573132562425012 
-0.07135821239104112 -0.06638310179552315 -0.08310897123851765 -0.13204590870656668 0.08919134135321066 0.3508398165596788 -0.12573472201456373 -0.049686117004388804 0.051745335431953636 -0.19883640740569783 
-0.09318151725564308 -0.058319613197072497 -0.06031996517908362 -0.08877270945248755 0.010933731264826625 0.35454573468939243 -0.06094345955212392 -0.048815024472908065 0.007054072887743135 -0.1216211348732913 
-0.054669341550869416 -0.027938159088606612 -0.021068093815111686 -0.0285385750506149 -0.016983420278403043 0.2025630383655405 -0.026454991820374 -0.02762283039652197 -0.02608149496557022 -0.05017352892041787 
-0.013755479393114554 -0.004331449334781552 -0.0032437256087019745 -0.003594939074398762 -0.005692173996820937 0.04270034988682861 -0.004925003986059766 -0.006706614126056789 -0.008852249174028777 -0.011985843752075087 
-6.087093915433789E-4 -5.699963516023655E-4 -2.0392831614705822E-4 -1.2023825716267405E-4 -5.021612747732143E-4 0.0028057193049097606 -2.33272668928329E-4 -4.148344128740906E-4 -3.3879505604828594E-4 -8.717345946039386E-4 
3.213339021112071E-4 -6.462835797156502E-6 -5.024375846082544E-5 -4.4289357072098854E-5 -4.968266885402532E-5 -1.3370233063063392E-5 -1.4493121980066649E-5 -6.723806031535691E-5 -2.6155642764054346E-5 -1.5154158256537112E-4 
-4.131056519634784E-4 -1.1341196962318678E-4 -2.469868150129387E-4 -0.0016265097504414786 -0.0010457626641390925 -5.501776533544318E-4 -1.7102476015370944E-4 0.0028906553462734936 -8.155974257060652E-4 -0.002213311670840306 
-0.004417219974156319 -7.872927846318893E-4 -0.0016721257380560189 -0.010264749128067893 -0.004197308074054745 -0.004896171983897107 -0.0021412298024815987 0.013547501285155679 -0.004514032516782014 -0.010322376858224036 
-0.014712952267079893 -0.003094049962697725 -0.00850324597351549 0.0051366884473359065 -0.011019381190245122 -0.02788123895414598 -0.010901688880574526 0.03258618578128008 -0.012325378480135032 -0.034255036084294414 
-0.0389228656788794 -0.010277908552520648 -0.003113316290516364 0.05070717877473041 -0.013562797113396882 -0.07349446710199756 -0.027273446425710227 0.050997480062528765 -0.019385488861673485 -0.07770924685623305 
-0.06668672348491585 -0.033878365961485475 0.02585708815847619 0.06564570050756131 -0.013529935801867465 -0.08139863114729877 -0.05454471692637792 0.0850188503919 -0.01919927428527875 -0.13631708444995908 
-0.09394489846846053 -0.07162199114050496 0.04682559768486267 0.04297330871745875 -0.029660740387185327 -0.06708278007366487 -0.07803689671361089 0.12396786259293867 0.003783370591657628 -0.1849701256537938 
-0.11871037637430541 -0.11652693633133478 0.028054755054033254 -0.00685788295797306 -0.03504185723940798 -0.01348373000230215 -0.07617221240361308 0.1793749752487094 0.04922350761223492 -0.23274248899479155 
-0.1171010934470327 -0.16910946525575848 0.006858854204400947 -0.05176153534735136 -0.05988220464677284 0.056860164901000675 -0.07149702666861105 0.2002934498946262 0.06467356032930342 -0.20981532657807236 
-0.0845159762179279 -0.2179861402641572 0.0068340539474378015 -0.08153594872054155 -0.06800469894241934 0.08293326180197584 -0.08537494638653517 0.19598350075266074 0.09951019125085227 -0.18848621752878228 
-0.05426744318555545 -0.2481144393020032 0.05578014982423427 -0.09089060602120107 -0.1408001199014504 0.09484263336526007 -0.11116635703670597 0.18521968528296262 0.08157987722940639 -0.12067594358691365 
-0.03781354542919972 -0.22380618402577207 0.06935478888749443 -0.09672180691043683 -0.20282415184966243 0.10661528377948258 -0.11585533487216346 0.16235023491568382 0.042399306167231615 -0.04845001277974139 
-0.014758480341623833 -0.15178543213889442 0.04375506629118009 -0.07540223046593864 -0.27825213585519404 0.026030707683846188 -0.14761301957412173 0.12885164860900528 0.029117423864129573 0.05679270629420059 
-0.009145580787366507 -0.07337224025105513 0.015096646845672457 -0.0727574173035612 -0.3493277874110891 -0.09292682123683003 -0.16915325320770333 0.07572571162906258 -0.04516332982814671 0.18550903533639454 
0.01238343357961682 -0.0431729194927402 0.006751332680743575 -0.03911222099561967 -0.48561217777808025 -0.1562757330092709 -0.18002076324001778 0.06006109796366291 -0.1529064490497505 0.2621562442180888 
0.054924244574858436 -0.05707615979025081 -0.012270786656515442 0.011096465340282784 -0.5114029548729467 -0.17534053728498955 -0.2126062134222225 0.07217664179475312 -0.16471264798325055 0.261991573255853 
0.12003281236479076 -0.10681034252472336 -0.042966918459874236 0.027801294246844344 -0.37468261615200826 -0.1494603644171645 -0.28036245025346224 0.10657915738779299 -0.13116428494139593 0.16709986361363416 
0.14919625321963703 -0.09068668829484908 -0.06481879727567587 0.022615315773584856 -0.2227115196182726 -0.09106911266136268 -0.36785701432932916 0.12640758924220727 -0.1480880037179417 0.013474858628167994 
0.13888342122970687 -0.07742220397024122 -0.09300809555292655 0.041247711788893464 -0.13016518314601103 -0.04762498016224627 -0.44185827704542735 0.10738952426595592 -0.08905100659046246 -0.058447359328073226 
0.09184967631180156 -0.0819866037192918 -0.08444242135747108 0.07945565441259288 -0.077028549145435 -0.006903527385566042 -0.43034085948372647 0.08977533597307877 -0.013485209106995204 -0.09034037471231518 
0.04533201992219173 -0.1037074740475395 -0.07041827723396128 0.10273507150078572 -0.021700002592603733 0.04087890145065849 -0.3696118128691671 0.06919931010191371 0.01701009135453411 -0.09192424292769488 
0.0036333260805043494 -0.12028760877476138 -0.04446871926725598 0.04538259470082317 0.028025015818542606 0.10365511305268876 -0.30420695324820624 0.027383796137869565 0.08849001108301287 -0.1282387123512884 
-0.0012522248228005464 -0.12001332111310782 -0.04014386276795729 -0.043829057558532364 0.04416867568069608 0.18481905839374338 -0.2366328940915119 1.0114941596344818E-5 0.15110613553376667 -0.18525201880454137 
-0.02876493599805833 -0.1067698774350293 -0.07642692266639561 -0.11781064828505894 0.013168594818374933 0.3572604703593636 -0.1530552316744294 -0.03298276569172998 0.1288078774957711 -0.16727391080262932 
-0.08027797712055665 -0.0776123719207668 -0.07230425020063294 -0.08294092231461374 -0.027117152487255613 0.4227596605825465 -0.07948859089874191 -0.05088938079958828 0.053726405648493826 -0.10361204833596278 
-0.055976217041990885 -0.03588725350585077 -0.028402760591120707 -0.028235954690734134 -0.033625586918665205 0.2621277693781176 -0.032900157504569934 -0.030797074901641682 -0.011753346745468622 -0.04495603066847688 
-0.012545921986921458 -0.004915374167550985 -0.0034375996457248555 -0.0033888616787662055 -0.01129790820348487 0.05273614000866452 -0.00773567655383294 -0.008006176233976866 -0.0027583590729863814 -0.009617052790466749 
-8.08055110838041E-4 -3.3662363620127794E-4 -1.6221139906745204E-4 -7.78665456984106E-5 -7.938096725106756E-4 0.0027618918694406244 -8.748612756257811E-4 -7.583168535389785E-4 7.54754282145444E-4 -7.336058385284111E-4 
-3.7138629350244034E-5 -3.544006812655569E-5 -3.4038755651807005E-5 -1.1847661774481684E-4 -2.675991476654937E-4 -8.658559669291438E-5 -4.934425208732629E-5 2.541545847725238E-4 -9.371621865699334E-5 -2.6028062473560965E-4 
-8.799739754590737E-4 -1.0199006423675717E-4 -7.100461623705328E-4 -0.0022371156546175048 -0.0017104434917856464 -0.001061047155684458 -3.77195695731961E-4 0.004707311017521565 -0.0013378940639188722 -0.0033306530312445597 
-0.007022397021611564 -0.0010679706036327615 -0.002462006318269117 -0.00933645925364499 -0.006953939131637239 -0.0057423940639683944 -0.0030705024409721994 0.021049055568908362 -0.0068604927456814005 -0.015618762645693781 
-0.02231453136323379 -0.003624992150917035 -0.00701114828688474 0.0018855098701855704 -0.020356697044980526 -0.02819033569021206 -0.014180264752373122 0.05256716292118586 -0.015668172562155573 -0.044391559171019807 
-0.050234490349665505 -0.011470367552967185 4.937599587745489E-4 0.03136419563322036 -0.02793948327210194 -0.06014040064154952 -0.02995389316568651 0.08531105926461216 -0.012433581949335146 -0.09635229832267006 
-0.07897552796256072 -0.0336644249960431 0.02710978935269272 0.02468938466019534 -0.03552544696356515 -0.05714759309518262 -0.05557114083838797 0.11267022970409317 0.012108817505231335 -0.1349504244061015 
-0.09692602951208708 -0.06448339491920413 0.008707841994454736 -0.011043367956378301 -0.057863317816629095 -0.01922878945393083 -0.06914165554737436 0.1272694700383541 0.06281490427721775 -0.14186032081640093 
-0.10521788398282125 -0.09877570481708553 -0.04534555028718245 -0.08577946564387018 -0.058299484574249535 0.046953154719295065 -0.048033597788020424 0.14482352810733445 0.10873065481404662 -0.15449803702530604 
-0.09734900000562761 -0.14844242869524105 -0.08767126009874417 -0.1648743880989809 -0.07152859388595097 0.11722615902421361 -0.03426367867049917 0.14502211972783083 0.1486990601392813 -0.12509272492313186 
-0.07379182187274683 -0.19584571254627145 -0.05801724502608522 -0.22752930121270445 -0.09018390345339909 0.12103016401076755 -0.06474226722220021 0.12472173478365821 0.15767391196493113 -0.09340258316087849 
-0.05993879274856186 -0.22523587549733634 -0.010289243765132893 -0.2833934824857229 -0.14509536401133524 0.11219594654960961 -0.08389489747133305 0.10126201946815312 0.1148060415041939 -0.06041992985457978 
-0.055187608975136714 -0.20557701458277783 -0.012646906624749417 -0.32386314267952715 -0.17036606969733029 0.14576569789239097 -0.09772675117432597 0.11758216412372978 0.08581618829584547 -0.013603974585403704 
-0.0177317577563789 -0.1251553830475387 -0.04863246688501811 -0.2621280041511507 -0.17247839703846038 0.056501088163595274 -0.08998874881745962 0.14848181758240708 0.046030387896085614 0.016382636592450532 
0.007301934958039047 -0.0015227392832039383 -0.0693141238196831 -0.1724678325213401 -0.24525812140198808 -0.04305729062952678 -0.09267125916609636 0.1632761097726017 -0.06676598294446891 0.005772413722298703 
-0.003522216178657811 0.11125436858390833 -0.06489840222034986 -0.06872755679476823 -0.40508001669417765 -0.1430420922126441 -0.1297861236975214 0.1891277662711487 -0.22521366820261485 -0.015049394700844522 
-0.008073990155469108 0.12672017771009528 -0.04522787131687563 0.025977200755465963 -0.37041195062326937 -0.2026043768566703 -0.23503211949813677 0.21938339140580299 -0.31338199912053805 -0.05407543135227906 
0.030132323385121725 0.018802992540402342 -0.026338800037926 0.06307413025064733 -0.20022384132013954 -0.2068944475813295 -0.34202305273287453 0.2646593301444194 -0.24503680646562037 -0.12393278640966136 
0.08432665940363811 -0.07336149831592349 -0.029807615732968074 0.04640025114584846 -0.10440397259037218 -0.17111677059630695 -0.43230834667529117 0.2438398473744799 -0.1497215624994741 -0.14992874382937377 
0.1311417020527706 -0.109586290560853 -0.04455366912310325 0.04704280124713518 -0.08598845156146444 -0.13520660199252238 -0.4551138906716682 0.16239270671920814 -0.06863161234999816 -0.13035015393351873 
0.11581057664723529 -0.14846074012885224 -0.05542376944650131 0.08846492392519624 -0.06828675565553922 -0.0889468420534026 -0.41115076377852894 0.12456559756876404 0.014894658889460094 -0.09213269518664832 
0.07712914788634015 -0.17016766559117155 -0.0706500947901821 0.1177640871773446 -0.039888438004623994 -0.04189838495745398 -0.3465077522274316 0.08950297645292603 0.05883814266536126 -0.05023926241008028 
0.04937619223305523 -0.16632274934904775 -0.06544667816094954 0.04694466220853774 -0.020736825033766906 0.02570309985403066 -0.2868033528527495 0.06457237641699645 0.1424917379191474 -0.07931468006934352 
0.05806726077312276 -0.1407956511287446 -0.056972386483688055 -0.03488028410559393 -0.02383712119280404 0.09971655332838102 -0.22544200526120872 0.02231191269491062 0.19522837137634705 -0.12087862041959314 
0.0383100077239319 -0.10699136543794704 -0.07684654589092482 -0.0859149481407969 -0.04749005303179497 0.24130932658570947 -0.137008913970847 -0.02412866977226193 0.17363642201149476 -0.11540220854642134 
-0.0386923917795138 -0.06939619210337727 -0.06516409751403746 -0.05744156513327045 -0.0646496340367649 0.3623272094578686 -0.07584509386272781 -0.038662962767477584 0.07322075425240022 -0.0758901603635904 
-0.041924934241005456 -0.0294467015008398 -0.022926481986347735 -0.01671078592439459 -0.04120551686646807 0.24741801745024192 -0.034197815239042646 -0.02071776690477693 6.484831949847397E-4 -0.03369663232427913 
-0.010607709095515595 -0.004342209008170868 -0.0030191068482508 -0.0022293094701637565 -0.01213483774539485 0.04709952247760537 -0.009956627474016655 -0.004734317226349458 0.0014301251025042958 -0.007733711611404242 
-5.883908790813124E-4 -6.608936006774408E-4 -2.717464511287255E-4 -1.1042915042528248E-4 -0.0011425317015679641 0.0032225437952206394 -0.00107372320076596 5.238956378314438E-4 -9.311338730150746E-4 -0.0011555462380289643 
-6.32119258880806E-5 -4.289193585558336E-5 -5.0501794309842784E-5 -1.6623257540489893E-4 -3.289482225952575E-4 -1.2746953275553121E-4 -6.419489173834258E-5 3.564877765670072E-4 -1.2041286129141362E-4 -4.1823374760174164E-4 
-0.0014644259087760304 3.8622432938881425E-5 -7.285161434318848E-4 -0.00275172198262437 -0.0017535771853929084 -0.0015911662640299793 -5.808941810817048E-4 0.005648110742283331 -0.0012980205702503968 -0.004593641214587757 
-0.007691540471824607 -0.0010360502204521268 -0.0020430358117836515 -0.008173207680172255 -0.008913607966226799 -0.0061766639606285825 -0.003491775801773503 0.025548574259996834 -0.006501069948162301 -0.018403955417307896 
-0.026033093035059136 -0.003857152982988928 -0.004998963618736939 0.004074025610038309 -0.02390635062453107 -0.021824710082335896 -0.013445151214174743 0.05771690398842363 -0.01788998308063163 -0.04555205847339922 
-0.05497043873765331 -0.009931129640799553 -0.009827801704954746 0.005692013493202416 -0.03394552922829362 -0.03490563636782113 -0.02920138436704678 0.09456533388137292 0.002161418909932948 -0.08018275914208274 
-0.07662097590165698 -0.029225299664521514 -0.016970581513260623 -0.025371421257578262 -0.05223361875142922 -0.027130914303648265 -0.047584295666013354 0.10994489526770587 0.030594768225201664 -0.07108293462940632 
-0.08323016944929555 -0.05636865509672445 -0.06813426571056139 -0.09139308752769953 -0.07407720492042477 0.02521842919421022 -0.048938365684025036 0.08998187569860035 0.09590188886327075 -0.038495789817699994 
-0.07233558513531241 -0.0845574476873796 -0.16252751586997546 -0.18324193123483207 -0.06613221907212637 0.09398437846404714 -0.019199108596019587 0.07087713479252991 0.152875386976439 -0.0043502452563621815 
-0.06676586192356135 -0.12602737977894943 -0.18944465164690355 -0.28425310211164845 -0.06045473182480683 0.14598487581793462 -0.008560041709174893 0.03201486455279041 0.1808148798217931 0.04930296453334869 
-0.059295256252243134 -0.1740042970417701 -0.1706015846151299 -0.3698649483519483 -0.047978627367900456 0.16318759599168386 -0.03772242938910275 0.016238301707532658 0.16761289672388122 0.03301086717570283 
-0.05647568157149672 -0.2026476771745942 -0.16739881163362091 -0.4295134087973049 -0.0574463127649738 0.18221519288155816 -0.050976835088259606 0.019815365837384115 0.14956409412845556 0.06351514575714358 
-0.018741067780541854 -0.1962176445273147 -0.1919199036310221 -0.4148383961229456 -0.03408179234096827 0.21510758313158077 -0.05626499911379011 0.053369619633522325 0.11644585326802512 0.06065441430516829 
0.005453501942188054 -0.11043369320040682 -0.22462089321606105 -0.2614731841028234 -0.011560627415965826 0.1872566693018431 -0.008138012207560438 0.11433960051975804 0.1137072510415166 -0.005378272471053959 
-0.002297909840933363 0.06113684071499847 -0.22916034626914958 -0.04566385595114847 -0.17259739926406845 0.09085933834584715 0.00877170170969573 0.16847866492080238 -0.0059517682778739015 -0.10242824367342454 
-0.050284242300647604 0.2672079116468755 -0.19940725735686413 0.07802855401434229 -0.3457231134745601 -0.04824025199057823 -0.12138293995743427 0.14770179121664828 -0.22276080461791428 -0.17660923480180374 
-0.10309712410637921 0.28777207798688087 -0.1525835265566554 0.13585522141375383 -0.2348857000725932 -0.13756327515301198 -0.2733167173588351 0.19187839696050887 -0.3381475790856433 -0.1677962007669322 
-0.09854625887262627 0.07883861102334996 -0.057278871478747044 0.1614774406661855 -0.04810628354287472 -0.20707289241757265 -0.3478954731453081 0.2923226658107519 -0.24477594389777235 -0.11298057248502463 
0.011064836273070946 -0.08262663382214011 -0.0018523094450291664 0.11738714712975686 0.020317667288785243 -0.27459679988611285 -0.3627805189650782 0.2612152470308421 -0.11357258813974969 -0.09612562322290899 
0.11235975971285071 -0.14651606396677705 0.010719793422731298 0.09091659927882084 -0.04226909825542123 -0.2825406089613627 -0.33900862930028325 0.1718790286636473 0.0011272871169203677 -0.04844681190091517 
0.1243799944026241 -0.1761980863100653 -0.00984597035197796 0.09404409897386733 -0.061217867304828595 -0.2613140102555794 -0.30717074289540003 0.13097745566745606 0.07171350055940083 0.019227066043866613 
0.11927576040509623 -0.1841150505916748 -0.034682440214410276 0.07143829606577355 -0.07099756278580711 -0.224895875005051 -0.2488360028696137 0.10901176845897223 0.09633764876976494 0.04636520694175276 
0.10688991227052126 -0.15221086558563374 -0.06527277783844336 -0.01406479472116473 -0.0659489567182631 -0.1953751553269384 -0.1972668718728072 0.07952534865782018 0.17576858281631796 0.01641851636729237 
0.1321226866658984 -0.11070729409091515 -0.08541053421942141 -0.07321400234045693 -0.06660918738577704 -0.15408320971448658 -0.13754449470068655 0.030319059387561416 0.2066604315657851 -0.029563337796403286 
0.10958628649798756 -0.07625628000030558 -0.07880279663118268 -0.06990140855716334 -0.07350328513295158 -0.020276349328396222 -0.07918287329296511 -0.022858239749801453 0.16837494853494128 -0.05425450658648453 
0.0045613654187066045 -0.04542185844850717 -0.042898025896986894 -0.033553380919918115 -0.05161693415704289 0.14040778479254365 -0.04904710415778249 -0.026963337626089736 0.07944970708170669 -0.04900398569199487 
-0.026806354017496776 -0.017081526043406785 -0.013128239218050562 -0.00838194545821472 -0.027263132771044432 0.15540862443953454 -0.02656430495366404 -0.01086832965770679 0.013664184940540076 -0.02197096312374091 
-0.00831749812509699 -0.0036723025510603568 -0.0014855779725874206 -0.0014482955562126522 -0.007844391540808444 0.035598716194679116 -0.00832992965634883 -0.0028193679628201584 0.0015020719659216458 -0.00652609121875359 
-2.3080659330074934E-4 -1.3153460677664238E-4 -1.5860910770993457E-4 -4.616212322279493E-5 -3.514036917315245E-4 0.0012895949748411887 -0.001146202887757591 1.0341074895479087E-4 6.875008916410327E-4 -0.001496343648220049 
-8.255655276870349E-5 -2.019776576905346E-5 -4.6891463616814565E-5 -1.1844024887902986E-4 -1.2462150000969112E-4 -1.4650327725756763E-4 -3.610400911709217E-5 2.3785118611680404E-4 -9.348585452537234E-5 -4.560053164404331E-4 
-0.001073339274304368 -8.9934601718027E-5 -4.4746828766148943E-4 -0.0022340111418291558 -0.0022705396257200563 -0.0021196723468991266 -8.442396768560207E-4 0.0063017563770819615 -0.0010499098396711992 -0.0054222348318040065 
-0.007731672948626003 -8.1012853354919E-4 -0.0019308286254888713 -0.00735558577837276 -0.01119475964419289 -0.006458477027754715 -0.002670266137486415 0.02939976102595435 -0.00529840508604849 -0.01987379607614371 
-0.02408965420882965 -0.0026855417294846026 -0.008032850356861737 -0.0012076538620680267 -0.021170071818719424 -0.01610515899252259 -0.011093558079283144 0.05693812760527271 -0.013765522534618739 -0.03609157113726778 
-0.055776442308210876 -0.006922434316954632 -0.02290552127551179 -0.016109410530038823 -0.03673315644982111 -0.01819409295053238 -0.026941247567630694 0.08293313201127415 -0.0012127153725265383 -0.033867836067053875 
-0.06353219841828223 -0.021843396704352366 -0.08367273942327745 -0.07304824219691618 -0.050971554312590775 0.0015742996457809655 -0.03394765449312954 0.06577611699356162 0.03601463899599614 0.02881837162130612 
-0.04133121735225267 -0.04773288650405239 -0.19400019373922867 -0.1609688329685581 -0.05691620201563877 0.05716870714525057 -0.020207631485131126 0.031513254986113626 0.08871680349776188 0.08699807758697796 
-0.020131609801995284 -0.07902450591972889 -0.2951861234983516 -0.26528444618159613 -0.03803113358673461 0.10402227416104391 0.006488874480849143 -8.163106753552133E-4 0.1403808513957632 0.1506435848343349 
-0.03487460855025558 -0.12286701170501776 -0.3290533027309948 -0.35014588151930603 0.0011885288653276588 0.14033728447925203 0.0091697866772572 -0.04465838438121802 0.15761147035039205 0.17143630730821072 
-0.042339416020516246 -0.17519434356422856 -0.33089153607251015 -0.3875044072192904 0.04011205295766063 0.16792083921711703 5.573206630778762E-4 -0.05252601977097986 0.14262733613734424 0.13040068859727091 
-0.019613903290051256 -0.21335569556805975 -0.3571686741571013 -0.3869112855999741 0.10742208775959575 0.21130581472484689 -0.020253323494549634 -0.04593020516884236 0.10487854527841958 0.11718270509684456 
0.007375682079253296 -0.22715979101198552 -0.39166965344557186 -0.2837874956201568 0.16478524242925355 0.28315850296136663 0.013431146232140085 -0.006557500759093516 0.12807084883643427 0.04896071793465173 
-0.012747665087046197 -0.14461472416887222 -0.39662895774292717 -0.06192139555843048 0.09204152052287813 0.29568007796949747 0.10046745686700471 0.030169059895104863 0.23138384483230875 -0.05768126008155188 
-0.056666314004979824 0.09671372622496542 -0.36772152751261256 0.12579197750332596 -0.17329397475739064 0.20581474505100378 0.054248695748539105 0.012984348919135207 0.16813905213729893 -0.15963128368875348 
-0.16804140998166117 0.394896470543857 -0.355129011494673 0.1694406799830023 -0.29741041382949046 0.018998868178713522 -0.16260268016953827 -0.04643716514572862 -0.08798188647099152 -0.18588908593472708 
-0.2549765202897566 0.37947489122564576 -0.24474119162704908 0.2092053245060525 -0.10963959867217327 -0.09698339651303976 -0.29115945458347353 0.05365386581177715 -0.2040482762086395 -0.042804291097989534 
-0.2414070913758611 0.07731714420701524 -0.08232322260508823 0.2093121695120039 0.1214707897218477 -0.186890228861802 -0.2334481353131813 0.2039217704063419 -0.11276777139577306 0.04785409049552456 
-0.1029915527674273 -0.1099826681873886 -0.031216091959856383 0.15737622821753025 0.10167304432732556 -0.3061316938369064 -0.1973210575570277 0.1959131193084593 -0.03031067821745827 0.061441127984885754 
0.0340028000718139 -0.15413173417286094 0.001853560168542422 0.10405362000845221 -0.027328551225382167 -0.36071659543507917 -0.1784602456947238 0.13202520109952448 0.053317463258270394 0.08373360329217891 
0.11113065648476525 -0.17452684927935638 0.034842228457708416 0.05367377774771911 -0.08057177860427288 -0.39578380823020604 -0.1624898372814692 0.08633290229608866 0.10122518126981238 0.16251547926286164 
0.12425992726538526 -0.15015259477052625 -0.010797957738804395 -0.015955117784298204 -0.10341990901306071 -0.4081529324871066 -0.11560141354045773 0.0913830919515938 0.13531638080454103 0.20199328322762564 
0.1438851105697361 -0.10300768429955241 -0.07595431234141779 -0.1144569652434863 -0.08473287377879526 -0.4017737399095365 -0.04459585974722705 0.059442018926529054 0.16516685235285272 0.1322971125175132 
0.17147350391201868 -0.0677062293998223 -0.1264839970775947 -0.12657990477028466 -0.0850774958479973 -0.38721456948212535 -0.0071078963693081785 0.006715254686192744 0.15826290607772614 0.040592056259306085 
0.14931424205982705 -0.04184130086184908 -0.10807994359146698 -0.07910995127702755 -0.07474796151618383 -0.25622309557560463 0.014362293241544165 -0.038893236985342916 0.1101500247430064 -0.02557066862475841 
0.03733379771369073 -0.02199420278842832 -0.036720214007474716 -0.026733291354373072 -0.040580101093616296 -0.06455968583033403 -0.005905401137434377 -0.026965949196318235 0.0758916937621986 -0.03090268323107003 
-0.012881096416555774 -0.008370218317594632 -0.001695917102972169 -0.003526446208790249 -0.015400976949216506 0.05013522862334148 -0.011228909680929603 -0.007114167584231561 0.022606883905966726 -0.013820560122944366 
-0.0037197752310836325 -0.001880134568841679 -3.936984189422114E-4 -6.449221705713468E-4 -0.0030625287395473467 0.014702045429569733 -0.006342378686323569 -0.0023273750130815506 0.008586465802323981 -0.004520815851128966 
-1.8970111455693609E-4 2.6482481398651443E-5 -1.539728116500452E-4 -2.8638422630687092E-5 -2.2917000879261475E-4 5.513733913708956E-4 -5.412297027423021E-4 -9.993294466454211E-5 3.2245009770763214E-4 -5.652174388075413E-4 
-2.1553356626656908E-5 -6.19890571949128E-6 -2.5258060863222666E-5 -3.816716233389081E-5 -3.681851389752885E-5 -4.301132741710706E-5 -8.864796724053065E-6 1.3032275363665172E-4 -5.680089782791887E-5 -4.5792805010315787E-4 
-6.842568210269106E-4 -1.044720019819806E-4 -2.472923180948872E-4 -0.0016446109178126318 -0.002047230744808732 -0.0014816844048982686 -5.769119366328486E-4 0.005468059010790554 -5.110321028740705E-4 -0.003941277633644969 
-0.005499804250400696 -6.487788669079614E-4 -0.001106761154046957 -0.006633080274089655 -0.008526448916658248 -0.004754328293280029 -0.001900075220974691 0.023428069359467292 -0.0029174354040746127 -0.015168349612186478 
-0.019091354521093493 -0.0013226117827359596 -0.010917758315181249 -0.009807885477715156 -0.018495858825593455 -0.008150993646111415 -0.009421657868764716 0.04954206050295298 -0.0062499135095570035 -0.01804499127413997 
-0.04855829809295674 -0.005297665277232835 -0.037940885811946115 -0.03261055807453299 -0.03341509193796882 -0.00412880325518428 -0.029289732859733218 0.0643740769529266 -0.006856261067797377 0.02332064038155775 
-0.030932509383472813 -0.02037158543749326 -0.15189775950580528 -0.09813007013655273 -0.03503692490619035 0.014836678686741338 -0.0335097741933182 0.028899130146410563 0.006493961508819074 0.10207833862239225 
0.014730004068097815 -0.04160006373031104 -0.29967438318311923 -0.1915895834751613 -0.003907466228850509 0.055228229673930394 5.179172153073367E-4 -0.02792603851960974 0.011132721172833404 0.16371468228790126 
0.018371941799009393 -0.07308475009123043 -0.3879020848337536 -0.2753695167262969 0.04679027175760151 0.0839502007668875 0.027198108321466904 -0.05386018242591585 0.021618980069807642 0.1870315201825575 
-0.009804427912921429 -0.12091020335356474 -0.395131113460732 -0.3085498626451829 0.10261229027259816 0.12691701563412797 0.03181994872237547 -0.08333863593498943 0.02318121357937735 0.16483956825337265 
-0.012620750065112955 -0.1794341084680434 -0.4096497182588267 -0.2892874377857489 0.16369072493100903 0.13750951962708016 0.022154992577840444 -0.1338143724913885 0.012011776518422675 0.14273072616515112 
0.022135795710348346 -0.249750472570355 -0.43649391145544997 -0.2338533487507494 0.279991065285208 0.22392988413583803 0.02063317226308612 -0.16425721088002596 -0.027946978968301076 0.10774590624240854 
0.00842000984723898 -0.28587930463527467 -0.4498742389194373 -0.10431692920540893 0.3086427859942363 0.31581006340535256 0.11787386631356697 -0.16255961535132188 0.07151695997920413 0.01369080842636879 
-0.032755685374204875 -0.18868142007796532 -0.39657263386568287 0.12795799303000385 0.14394062738055988 0.34144772869076045 0.17170751659203162 -0.1882108282883658 0.29847192546299534 -0.05464686571497763 
-0.15238987234469126 0.13979257841849363 -0.3702331007944223 0.20488100262744915 -0.1236669790968266 0.21878055041152764 0.020259965082498072 -0.2698147974753673 0.2623502250899992 -0.07156502075128354 
-0.314290849669824 0.48232459053713145 -0.4060053871162988 0.16024436957423377 -0.22391531931478403 0.0027526626174515416 -0.20646979065742294 -0.31674842928572133 -0.00910210893254866 -0.020267155167962538 
-0.38447034645832223 0.36337293968455964 -0.26583100047189784 0.15822708250695314 -0.02166873684405502 -0.10749449691958851 -0.1969056643936887 -0.10803103133255697 -0.04360729173170747 0.14445537472516154 
-0.3603646501415265 0.025930299220347765 -0.12898166826017968 0.18600079006556944 0.17207093206474958 -0.20430039047985973 -0.06990304996386627 0.1072484828909838 0.03430065147112273 0.17718083770438975 
-0.22206977624925064 -0.13849722766391773 -0.08643156015828918 0.11301779199733748 0.10697811263934803 -0.26701713399516996 -0.05444260466707219 0.10563247989993842 0.0232975192033811 0.14265214570205495 
-0.058540730622612044 -0.17683849902555754 -0.02676189207465185 0.03586240114866296 -0.03262720983634875 -0.2616668939733849 -0.06612045169535219 0.05100670380880051 0.034900401958815726 0.17062186243397243 
0.03929946436526883 -0.16688473599706108 0.02417081998646489 -0.029764294436742326 -0.09020416040739866 -0.2768307168203273 -0.057741837092184146 0.04338676500264771 0.10549663317582371 0.247267187829459 
0.08558884391984062 -0.11352106426611286 -0.02686436851818995 -0.10357675667818544 -0.0877935966738828 -0.3225757362035475 0.003513262702658303 0.061365112130302935 0.13088421618092685 0.24178041695095345 
0.14404486121910592 -0.07088287648497962 -0.11074109417170824 -0.16490299516672552 -0.06976077983488872 -0.39620327887399537 0.08110234189808216 0.020964189742428124 0.11001080747059526 0.14953486386539516 
0.1956134457131556 -0.04630710755772344 -0.1775340258177908 -0.1473683185634042 -0.07035202510847006 -0.43177314272834233 0.10387390560762538 -0.023841245707868285 0.051375144863000675 0.04716898456235982 
0.16657103788996383 -0.027126650906184366 -0.15522072249803845 -0.08894139297472246 -0.06074975236811624 -0.3445957773193076 0.09536675610946399 -0.053781855094303464 0.028019446142385336 -0.020149608333955956 
0.05836071858300681 -0.012741952398665655 -0.04573082351415593 -0.02673067188891855 -0.027451550137905765 -0.16018887501060564 0.045147746763514594 -0.03020775978218379 0.029176773949892557 -0.03144566692300644 
-0.003965049882782828 -0.004460601894334094 0.010415166707339957 -0.0012877246632245027 -0.007843629932249043 -0.004263078791511169 -0.0010794572023365603 -0.0016464506529862734 0.014830085327995537 -0.011610640974936104 
-0.001648547025051612 -0.0017426118634977187 0.005662881593346211 -2.4760755568581437E-4 -0.0032749565997474486 0.0037553341318354604 -0.0071035266210579635 6.041014145175221E-5 0.004642445944637417 -0.004400279748787361 
-1.5871617547050953E-4 -1.2148789132070952E-4 3.406151410851724E-4 -4.6609882525834455E-5 -6.282437429537067E-4 -2.5176936078539613E-4 -6.159434106656439E-4 3.6788372307521196E-4 -2.1032518867495227E-4 -3.226162273188775E-4 
-1.5495319845891914E-6 1.4266534306997157E-5 -1.0290975470413225E-5 -1.6707226123330954E-5 -3.3283584393201402E-6 -6.531925938583398E-6 -7.943208041822051E-6 -1.155497197109642E-5 -1.1901990330414639E-5 -2.3421900185441835E-5 
-9.504156804215212E-5 -3.643714670004067E-5 -1.8479876074639634E-4 -0.0010874813959469484 -9.443746515429344E-4 -5.27893487770794E-4 -3.159506995782396E-4 0.002567263814749129 -1.5292059349510052E-4 -0.001615936405753727 
-0.0030680857954688964 -3.545366351279533E-4 -5.546063178754569E-4 -0.003802391865926519 -0.005215475635180197 -0.0024185153487651335 -8.705990412050832E-4 0.014112058192237705 -0.001435444209680266 -0.009239278618474102 
-0.01580891465670034 -7.354159290713076E-4 -0.009276143463529915 -0.008224742747611 -0.013235244622906771 -0.003696472174169503 -0.0070959858650826045 0.03171147195367842 -0.0043758613042355465 -0.002110416743051635 
-0.03647017442486444 -0.005312200267784312 -0.05449153810109389 -0.03675900771725735 -0.01541280429712105 1.8043416941462741E-4 -0.030993008908076415 0.03852962360934117 -0.02032009104711275 0.05575156678881883 
0.010709472439051416 -0.020135444831580418 -0.1984230393580416 -0.1049852022662401 0.013992325230405875 0.0020014345392042913 -0.03149208802417942 -0.009677464328861627 -0.05677419817869246 0.1274559270511342 
0.06264134647073968 -0.042361462671745675 -0.32610101322217344 -0.1850803258339119 0.08933608364502588 -0.0031477989719134705 0.010342444895606281 -0.06978429690571808 -0.10245738975281705 0.1534497960439725 
0.06356805723592401 -0.07676790953291993 -0.37861746577227223 -0.24144439481380225 0.1587024539657679 0.022761174389599396 0.032736422256996016 -0.11229863758472222 -0.1350818270782487 0.14071553379648796 
0.03431921794209765 -0.12232761860960129 -0.3612109286686907 -0.22845101604247614 0.19619187055056322 0.07871429844356514 0.05207012716347313 -0.16052286627760365 -0.13678826965806656 0.12136136868590822 
0.049740805925302146 -0.19849742539586512 -0.34491788359085196 -0.2064816112975693 0.2603700069790656 0.14524964756323516 0.04887289457267289 -0.22564279275651344 -0.15083611444079142 0.11227655331350084 
0.0709151425583338 -0.29357128418363837 -0.3296877065016697 -0.15163334270164075 0.3725564609559223 0.2272526571950724 0.09436815802634776 -0.2781820925728358 -0.15465317611687862 0.09288545985463376 
0.019263188954565958 -0.3348923756172942 -0.2672797479445169 0.02101465223942571 0.35727889233370863 0.29722112147718227 0.18146969141213543 -0.33028296963507886 0.07055225990294271 0.045482134733676294 
-0.0903857239314039 -0.2100798417344607 -0.18214069551609569 0.2269034941200802 0.14940008174020525 0.30760647110423645 0.15584289592588318 -0.38876442389876564 0.3613149324574216 0.04740636009929869 
-0.2801326673235525 0.1997784064840566 -0.23543011569220254 0.17153727820081394 -0.08900463099439736 0.12607141492207247 -0.05844293757147678 -0.49350849114611467 0.2365040383393802 0.038566690937018616 
-0.407032927996304 0.4549839687334236 -0.2969758657936964 0.038982006317194604 -0.16692058649324565 -0.08036394703769645 -0.15800083191228034 -0.47055066987034594 -0.0167715588441925 0.09373153497626402 
-0.4503969131795684 0.2867431730972782 -0.22922772470833394 0.03209720361231421 -0.0012892085291419098 -0.17961247772780162 -0.033002102620782084 -0.17859137100873865 0.046533244258067236 0.2020233884236705 
-0.4182700449398322 -0.03716023005001964 -0.13669153333033893 0.13052620832571926 0.15403156405637053 -0.23020348614516112 0.04589010531668232 0.03280954416689545 0.08259701111775022 0.20275503537062262 
-0.29000363343532315 -0.19517206325155664 -0.1001978596459706 0.05196508414846509 0.11591610174342513 -0.23046190186721094 -0.007931475008518209 0.018749128679704297 -0.03771655586752359 0.1423971199125005 
-0.13751364423690965 -0.2147170112444322 -0.08523867396624579 -0.025249741298156943 -6.753617951264983E-4 -0.13368245539430282 -0.03511102087290989 -0.0045847320307675615 -0.06436074747237673 0.1683722508432478 
-0.04226273884681859 -0.16021980515067752 -0.055858393638177906 -0.07267162073625089 -0.024980538421892455 -0.0808213090746568 8.445722684877527E-4 0.04315432369884091 -0.014854932966103993 0.20207476629259474 
0.03132090508225773 -0.1026518740725715 -0.08445064447925289 -0.0966162247962975 0.0016035055393366236 -0.14515565174842995 0.05901462484730328 0.058040693850639 0.016117264922447205 0.15687541059189572 
0.12007902806215152 -0.06731545028678855 -0.16336950091087624 -0.1297834157330068 -0.028153327216518184 -0.28525260670353775 0.13422799612297737 0.013883479322126104 -0.029813982883692067 0.061692520461766674 
0.18580036368532155 -0.04549310278118246 -0.21148677073128525 -0.13977266704523572 -0.0458228309303953 -0.35796041654729166 0.16356771548002502 -0.03216708675098495 -0.06433805583172765 -0.022036387451732198 
0.16011363134115875 -0.030973146077736324 -0.17067395078966377 -0.09070009781067831 -0.047753625903853125 -0.31342793006797337 0.14431891482100362 -0.05005890156064586 -0.06198270273729725 -0.06190872885472587 
0.060948379093051466 -0.017567141871564274 -0.05410980483844379 -0.031519850620908244 -0.03141856295383889 -0.15082850328988173 0.0739263499180417 -0.02638239975680713 -0.026082942611864404 -0.04739576938788369 
-0.0018456852094891913 -0.0059372975181128575 0.02022332199501355 -0.0029709660944537285 -0.008149054401899633 -0.013691771252341195 0.001402185851806125 1.0721302100930973E-4 8.7934954216799E-4 -0.01276747478951183 
-9.809079059207944E-4 -0.0023981487334966915 0.012691226584843701 -4.544182592682107E-4 -0.003528106612322642 -8.103645455189579E-4 -0.009746342691862035 -3.40717637590085E-4 -6.229334704436651E-4 -0.0030792355591913526 
-2.25628395669147E-4 -1.5038352328986278E-4 0.0032978709460045053 -2.903138298286115E-4 -0.0013977336642677456 -5.535846585422185E-4 -0.00202680864294703 -2.7636782547607483E-4 -0.0011316122268510266 -3.548021183635291E-4 
-2.5297649210163942E-5 -3.5956823969553776E-6 -5.284653893570187E-6 -2.270137396084542E-4 -9.412982669542625E-6 3.9608260313393653E-4 -3.839794035758543E-5 -1.2764923923756937E-5 -5.417745182701336E-5 -1.821605819014229E-4 
-9.898087517982002E-5 -1.545700726142486E-5 -4.3074056995510035E-4 2.0287152653262143E-4 -3.759557838615293E-4 -2.3597791194843724E-4 -7.722320038676351E-5 0.0010999761476931677 -1.2269792435250497E-4 -5.097534063963341E-4 
-0.0017621956873677736 -8.593823434352372E-5 -5.948650311716773E-4 -0.0015795171474285224 -0.0020825155192778955 -0.0010386370352853062 -2.976815888240209E-4 0.007024217613427324 -5.836242097965771E-4 -0.004110964388460707 
-0.014863995543401579 -2.8839713152390193E-4 -0.008479461388221393 -0.003655023106377458 -0.0044208836102375285 -0.002873185420615071 -0.005851826616488464 0.016186214356238442 -0.004920135597311502 0.005557582121976544 
-0.02341873822171383 -0.00415415207578066 -0.04930574062479696 -0.028928651167210336 0.01759895189374788 -0.00820647211540801 -0.03558142763569851 0.014113698925761172 -0.03072322810547863 0.052352392017668364 
0.0532508588749569 -0.022994837154384783 -0.18997849173237982 -0.09505197616317891 0.07146221391551702 -0.05659483825355906 -0.04395373626183166 -0.03603556198283997 -0.10228106592946777 0.07541381745123141 
0.09748900715661515 -0.048152758180118084 -0.2663282384138925 -0.17199227271423903 0.17275004114879441 -0.11509479037355883 3.6766488717553656E-4 -0.10203488695557895 -0.19623474172816285 0.07413278830993568 
0.11228349083269311 -0.08407324980866143 -0.25736356768938223 -0.20625154597734138 0.24541294114006995 -0.11011644691712985 0.040094610573081134 -0.15373645720854043 -0.26552643010831334 0.05489313365861866 
0.09942598741676809 -0.13092852145822803 -0.21333737907018394 -0.18466640763958375 0.2506640602467492 -0.01399458072000685 0.05625628525061969 -0.21590379131049103 -0.2960394437494425 0.059015811310651305 
0.12290820466873897 -0.20903435870061435 -0.1743195540616127 -0.15188670989623473 0.2557095584734649 0.12308910542858342 0.0810732862102507 -0.2943811411116305 -0.2937590572503202 0.0635348219909905 
0.11952416581419432 -0.3023831674109357 -0.11925499969493836 -0.10186754941213254 0.3033063908470292 0.2063299731341598 0.13568313883335983 -0.35356465174101526 -0.1847629263868604 0.06850397608028506 
0.013302429847877821 -0.33105882610204157 -0.013492326178379395 0.05411585863100833 0.27750505017678734 0.23383909942150485 0.18534386931028685 -0.395950291770451 0.12234460072908314 0.08344623610228824 
-0.16294772380488057 -0.1551331375093981 0.03756813748396367 0.19512957038021606 0.1385469469832191 0.21596864690334214 0.08692423744487042 -0.44040026654027226 0.3061524217943286 0.09808610962419179 
-0.3604748675066632 0.24513069826465764 -0.08226610941743426 0.047547976235203196 -0.0625839178606357 0.010547187232815716 -0.10013570360379291 -0.5312971143748039 0.14957812719416264 0.023933262435017814 
-0.4597692916103311 0.37409226519627037 -0.1630871417633794 -0.05814905968618196 -0.12079456193480075 -0.14749820190464333 -0.0724156319557107 -0.42199137365738837 0.01155859784724316 0.01398983083781436 
-0.4722139115153883 0.20892546024979192 -0.16128935081023804 -0.013919742842734234 0.031160521976175592 -0.18765065761659552 0.04995908066915095 -0.12723089100161838 0.025000621696524648 0.07490157929135509 
-0.4297608244876285 -0.11585571354975369 -0.0774361925044426 0.07128683764558567 0.1787064977145792 -0.21689427754013021 0.08023976276954022 0.03181577985865984 0.04981327063067343 0.12827302192257628 
-0.28870533947550636 -0.2712890493249789 -0.10957931481640802 0.006170662487279225 0.15789028442875036 -0.23421957000732657 -0.03527962342223708 0.02194650481558101 -0.12198569258084524 0.09565119289749666 
-0.15517531799613363 -0.24215144906874028 -0.1151040779701073 -0.016450843005115148 0.09693586625361934 -0.1074796306113936 -0.06606141244533573 0.06819218502456353 -0.20840882589571144 0.05073570203392854 
-0.058215237941877065 -0.17092657796416424 -0.1188516938242811 -0.013788281572849495 0.12070791680607323 -0.035144475899565285 -0.0068796272821128246 0.13091911489664146 -0.17095545501958062 0.027049749953801255 
0.021165633276487204 -0.11268868541836072 -0.13257215886286997 -0.013305504733318037 0.08313106956143886 -0.06561039466661676 0.07110581944456591 0.09767863331205084 -0.14785313896830815 -0.01666068399669408 
0.09241707845442214 -0.07632232264661251 -0.1881814863042783 -0.03183152894065645 0.013376989945149426 -0.18879404553131177 0.14304738305502188 0.04575673950238099 -0.14716615492043753 -0.07263854105084765 
0.13430829896412994 -0.051762174541092235 -0.2134808862768974 -0.08735256760800388 -0.017257450500778246 -0.2648983129953459 0.17846209953836814 0.002102696259931667 -0.15155977641955515 -0.09990963997708736 
0.13564681612946086 -0.034205421301308915 -0.16583078360169687 -0.07931088730751253 -0.025493086943324958 -0.23912133938053143 0.14032975459709449 -0.025486343716931755 -0.11832817334536477 -0.09836033529600596 
0.06008627476650519 -0.017035402722967774 -0.05371380750263144 -0.03311967634551003 -0.028788628899138847 -0.11309123716616151 0.06867662734243873 -0.02036922110291596 -0.052534204655810525 -0.05999414231079147 
-0.0028353068488991607 -0.00526579684790298 0.028708162768536678 -0.0052328223106201605 -0.012344762919994921 -0.015071361417380504 0.004867019422381931 0.0016738328511542767 -0.0071269089528515454 -0.012936277453168738 
-0.001152186850044381 -0.0014040239346582402 0.017517604313948186 -0.0017041414234340358 -0.004720525375533162 -0.001714745438055095 -0.012201668482207908 -5.476643838078507E-4 -0.0027553946316855034 -0.0021237693264952256 
-2.942666247712749E-5 -2.3716751943260944E-5 5.857261843928192E-4 -2.034847361763566E-4 -1.4941527430218998E-4 -7.492778086372317E-5 -3.1570253991499954E-4 -1.0581968373114477E-5 -1.9333725914795887E-4 -2.9658346022300337E-5 
-1.0428241204343031E-5 -1.3885084452882647E-6 -1.9319586362580085E-6 -7.549333517593352E-5 -6.310036831148827E-6 1.1977192709006347E-4 -1.3474999740127541E-5 6.866708575127405E-6 -1.9977652083713658E-5 -6.326351211469834E-5 
-4.38383495913466E-5 -7.780189782644784E-6 -6.11525113096909E-4 0.0012056519860354283 -1.4973942296620312E-5 -7.136537172884216E-5 -1.1055470358313852E-5 -2.5069283377466962E-5 -1.6072867317320916E-4 -2.0570912899119005E-5 
-0.001098636543157744 9.872793128939901E-5 -0.001395204277096739 0.0022809460204816813 -2.224259591792918E-4 -6.162500467724165E-4 -2.5801784159270615E-4 0.002061857941629233 -6.794120340254151E-4 -0.0025564786283463134 
-0.01634783160543805 -5.953491179856322E-4 -9.862474914563147E-4 0.004395774848231137 6.020754228272613E-4 -0.002169775412482729 -0.008557790865164344 0.00762912928894984 -0.00549467181775595 0.002337784703343761 
-0.00525253079084013 -0.0057214685635096525 -0.01956762364706979 -0.011675765648832935 0.0230105568048648 -0.02026761354546927 -0.04448785045374711 -0.005705496609860236 -0.034218215270939774 0.030766340687833398 
0.08643092414079806 -0.02910473142077337 -0.09635378931374114 -0.07051412854321956 0.08614704023012444 -0.12739469268551545 -0.06714418864907251 -0.06272000882557917 -0.12757716655590834 0.006574994154169904 
0.11617030705232385 -0.059757109343213044 -0.12077295013058763 -0.13909477370425447 0.1887577533766141 -0.2238106072600594 -0.018493231188650337 -0.10656919078644767 -0.22983822972767193 -0.027998993746946494 
0.14510602356020616 -0.09373938849096465 -0.09757134093609915 -0.18539953613270854 0.26341491402250566 -0.2396604552294213 0.03487503225613584 -0.1640223659565759 -0.2926942819490593 -0.014599755613169424 
0.15686018970908489 -0.13890376476329777 -0.05942038595533787 -0.19340953763479238 0.26226684421235563 -0.1264875720133152 0.05144898275606324 -0.23619765678234056 -0.3061449881354688 0.019074040532750636 
0.18410047741013813 -0.20670788993534875 -0.028437513864390043 -0.16801341522178967 0.2031889922038037 0.009951703772492394 0.09614126184825321 -0.28855288702827486 -0.24413261894178973 0.04303627625730995 
0.14100141639924643 -0.2715463990238678 0.032693352525691596 -0.10520933208495571 0.1688644960094527 0.08283026347108184 0.1420957367214937 -0.3176155978120718 -0.1020436677038683 0.0717010359637491 
-0.04075700812721709 -0.24412482035821928 0.11466900599616844 0.01593808024137406 0.1734275233100077 0.10761842187629192 0.138690136371725 -0.331060505543422 0.11802457494242187 0.08798198990600294 
-0.25775628088877967 -0.05815972212168236 0.1194775206607905 0.06881491285158392 0.10682561663880005 0.06529416094668529 0.012554532666139808 -0.3611657379539548 0.238751778433323 0.05803694820026122 
-0.4440487596197092 0.25977545883530834 0.015093829491572544 -0.05464679331156956 -0.01780063963851287 -0.11157649706743608 -0.09564060715618782 -0.40877691073705097 0.13727778596278267 -0.09708545674509128 
-0.5055592349506545 0.3298348312937588 -0.09664594254348202 -0.12032041212462148 0.01120065378622385 -0.2169656245734779 -0.025228143008294075 -0.25974789295205664 0.0020596186984977644 -0.17542133874622512 
-0.4807753136963617 0.11484269181662288 -0.06398796516251269 -0.04925189344857827 0.16434189509620362 -0.20126219752331823 0.03746895180394638 -0.0321896842207286 0.035641941723516125 -0.0626523937456471 
-0.3964555504169182 -0.18425880653685311 0.003929370293195948 -6.310658061046483E-4 0.24812254584051952 -0.20045499775156717 -0.0039353928276505265 0.05515217617361445 0.00978360087562712 0.07400921550663679 
-0.2519778131270436 -0.30402765082646643 -0.06440507196544779 -0.02543943237090344 0.19942812760415254 -0.19027889831643352 -0.08696023820148548 0.08497994941750894 -0.22414626851123795 0.034316356199067526 
-0.11784031787462544 -0.2507293971303801 -0.09798444817251281 0.022924810542315644 0.18099325002125835 -0.07156380184651762 -0.07991211664932928 0.1457503169851565 -0.26528366346480514 -0.049023285885082396 
-0.03148596206528056 -0.18338970221671252 -0.11179505915850212 0.07266475579123265 0.17328748176935707 -0.0422629355159081 -0.011411296228943697 0.1616970906300171 -0.240981644688071 -0.09794757747008978 
0.022077884777652237 -0.12617414319872636 -0.13735186647073627 0.09187665399124044 0.08489324342343785 -0.07928479489751256 0.08647971376534512 0.11731644854432952 -0.2230148700676665 -0.13265667076655502 
0.05121363273278847 -0.08696741302356084 -0.1537534230513245 0.055509067517884224 0.011250201980751127 -0.14819574821644524 0.14967023491626083 0.06663590476091993 -0.20452319959678975 -0.15701584868944463 
0.09246335996561628 -0.05916514463333886 -0.16508447314803515 -0.004722752072426554 -0.008655604325396308 -0.17351615917473395 0.15137170430713026 0.014433149354985972 -0.1717564632751252 -0.13621714687698486 
0.10611482455789012 -0.0378765658873208 -0.12067217035974483 -0.04427030628200172 -0.019387746771999413 -0.15148227091622843 0.10638845041201239 -0.021905842322920723 -0.12182459402343315 -0.10614505447465651 
0.04495304380116452 -0.02033631714375472 -0.013187355510372737 -0.027952623757919674 -0.03464044028121323 -0.0722708647473388 0.041987907854978974 -0.01722862519804759 -0.05452093894843134 -0.061193757683461275 
-0.006365434251731944 -0.007263585560047564 0.05451983939773441 -0.008900997098379033 -0.019542448962355116 -0.012410851221150014 -0.004482637851050372 -0.0030727371567884896 -0.011491730310620766 -0.01696808065150608 
-0.001877240846035734 -0.002399162666103553 0.026652069008800953 -0.0018839707933154186 -0.0019292159668919718 -0.0026945634410634393 -0.016359769320437357 -8.599312954190365E-4 -0.0036712559515357885 -0.002275842922905595 
-2.187564052681431E-4 -2.323035514444157E-4 0.0026824335159314717 -1.8591667676740693E-4 -2.4053782353908638E-4 -3.6447816252133136E-4 -0.0013284224343825671 -1.012281860951235E-4 -3.016707912605738E-4 -2.6092887816206716E-4 
-1.2256799429430176E-5 -1.2066347187029566E-6 -1.151915323531749E-6 -6.636572198034114E-6 -1.844519851844067E-5 -5.667909505110321E-5 -5.155556501364392E-6 6.312213930658647E-5 -1.2789325090988392E-5 -2.0674341886879114E-5 
-2.8713367303587286E-5 2.36571538571663E-5 -3.633852258597525E-4 0.0010463353614840918 -1.4346660550864557E-5 -4.611084419033219E-5 -1.4149107547265272E-5 -7.162477214045038E-5 -1.0650380586329784E-4 -8.893636519494822E-5 
-0.0012622709885124284 5.4453657553929406E-5 -0.0020630172321308353 0.010139050935374636 -7.483446046171565E-4 -8.603206561368367E-4 -4.758161721114702E-4 -1.2487500061042806E-4 -0.0013068404972252374 -0.00163451995256147 
-0.01881305303960947 -0.0015221191116686413 0.011781622743214815 0.026368093382831838 -0.006145827323870606 4.793532199779072E-4 -0.010470450368683442 0.0020432100893282047 -0.005635216467431092 -6.104141797144123E-4 
0.0033407861454596093 -0.008240735954137214 0.029628928403986995 0.02162069620623205 -0.0039697364430392 -0.020805200025522507 -0.05422180779728339 -0.01014325756014795 -0.039767712849776475 0.007930096144791015 
0.10057660564452683 -0.036378038091564584 0.012636217430272075 -0.038824599141130366 0.05823056482266492 -0.14878288581397414 -0.09063552217123595 -0.06478446017376266 -0.13269849461382732 -0.03741873873844539 
0.13207228051165049 -0.07804174825994491 0.036219933938026624 -0.11552109274256457 0.15440401060936232 -0.24618862513390735 -0.04643005860234896 -0.10228180675950906 -0.21204377541500022 -0.08445134786825655 
0.15211171543283478 -0.11544959948804083 0.035186594082286915 -0.15671628300608825 0.23189686729096587 -0.30266769405961974 0.02790675782371433 -0.13881682070797524 -0.21553699314460995 -0.04777873588453003 
0.18483190055827936 -0.15354656270011646 0.03592884592298139 -0.2003889600120414 0.23673616623529006 -0.27119215231274457 0.06104224942623669 -0.1940474843976338 -0.14797956176125723 0.031140473998978256 
0.18865143476928184 -0.1884628873123372 0.05699676249427039 -0.2166431844785805 0.15049299532359856 -0.19098572180145373 0.11646008932307769 -0.22917090488784275 -0.05648594232849023 0.07234699718227446 
0.12286796502267372 -0.19751431919675114 0.08483149216522984 -0.21384252231131667 0.0728528439135575 -0.13671450631370796 0.15528153875434747 -0.2502254179733242 0.0506859495170666 0.12484744210192654 
-0.09037195153756933 -0.15143907973993567 0.1283095036224708 -0.1625893452918596 0.06969673433990614 -0.11504601106593282 0.1331678700004753 -0.2571996526551712 0.172373353642072 0.12209703932059453 
-0.3294537863939113 0.008049023937926298 0.1398104028257991 -0.15694690471969222 0.08122734117109816 -0.11326683981275584 -0.016686836998722858 -0.24809853337799806 0.25790345386937114 0.02807439765795914 
-0.4719211234603078 0.26509427240606726 0.04682549067002571 -0.24017944952275957 0.0802860808591667 -0.1916403571260554 -0.08680046615244087 -0.2276350831713093 0.09406246214554036 -0.15314866687844692 
-0.4976830922773076 0.2974414742077701 -0.03769007480583486 -0.277761014207779 0.18808123038447377 -0.22640281940281742 -0.06359583862976168 -0.10150781331042587 -0.06539417944967656 -0.2113660485375345 
-0.438932240802809 0.021848276122875553 0.052072571893767135 -0.1669114360349342 0.2992790575850485 -0.17741211316350222 -0.07768670701010087 0.04281166465919294 0.01312193234591816 -0.07602366819209035 
-0.32314089454503986 -0.21389762596060455 0.09377521428184177 -0.0588722152180982 0.27128788493288186 -0.14425574174720524 -0.135740158306229 0.05880759918598712 -0.03136175615571745 0.037771996011628714 
-0.16566016817860194 -0.3005847852558049 0.03681050065454171 3.775024501059834E-5 0.2131243795216274 -0.09629732170438321 -0.13387392753364935 0.07929823668679756 -0.18882597464178333 -0.013148333651225435 
-0.04794367622494309 -0.25506687146461565 -0.03108244417881814 0.08503871519179615 0.18335714633923325 -0.04736913662763543 -0.0436532324180072 0.11122592588375795 -0.24664781124586668 -0.08769028002113413 
-9.907483742075194E-4 -0.18625591537294744 -0.06810094377522992 0.11808989829339708 0.1111538768623776 -0.05819450441542014 0.037689185177727326 0.09623606195191074 -0.23377121666767645 -0.15169623613017208 
0.012768562559087556 -0.13261796750362548 -0.07272698207992113 0.12664025727287262 0.03719035737549209 -0.08610022629320088 0.0946188152795646 0.044704046806857405 -0.20721692638290143 -0.16921735988937334 
0.02858279467118019 -0.09116495187958285 -0.04470702654426419 0.1152724061973034 -0.02059340178642511 -0.11590948440077575 0.109089049584423 0.010370562073108346 -0.1939641299049511 -0.17946711237755644 
0.06164833570585792 -0.06364645898714254 -0.04568392716571094 0.05365884336996612 -0.05141365268541218 -0.09846024091396138 0.0994476893877998 -0.027365474388979676 -0.16163295610136952 -0.13561371271705072 
0.0671819793844391 -0.043006245950383964 -0.007464411780809819 -0.011014877844506924 -0.049823028816178436 -0.06687510956920052 0.051904379464979736 -0.03611811833724258 -0.0937296849689096 -0.10467077833892686 
0.0227334767954261 -0.024674854678702278 0.05933127343461259 -0.023382105026797523 -0.04074912878076916 -0.029960149999768156 0.007651715477092413 -0.020025685722177954 -0.04645157039869017 -0.058657997006386325 
-0.01058055052302902 -0.012339045248261923 0.09647958455635801 -0.013877504359665392 -0.024774029412357776 -0.011633116181457294 -0.027871876767446867 -0.006840584500299578 -0.01810527090260405 -0.017241242722417536 
-0.0036418349778152372 -0.003591640381857521 0.033037454583755115 -0.0035766948523720736 -0.0060446447759810755 -0.004456736666327933 -0.02038771344331978 -0.0014170655528968272 -0.005557948712877433 -0.004070709900899009 
-3.834035768549817E-4 -1.6967128264760536E-4 0.0029395657724381116 -2.0038491856181037E-4 -5.203887044203812E-4 -6.227574227192907E-4 -0.0023006401398976235 -7.243041157056225E-5 -3.650141337872658E-4 -2.1371674519693717E-4 
0.0 0.0 0.0 0.0 0.0 0.0 0.0 0.0 0.0 0.0 
-2.753885128013606E-5 7.536877004720142E-5 -2.7345660077920703E-4 4.950856715002662E-4 -2.019686109189222E-5 -7.630873729805199E-5 -2.587131158135056E-5 -9.043298103604683E-7 -1.831884988952036E-4 -1.0335218990775106E-4 
-0.002215773708807857 -3.046547781834725E-4 -0.0019340234052454628 0.013572329176244801 -1.6668047390841617E-4 -0.0016648477421390868 -8.448471591127842E-4 -6.241417932651913E-4 -0.0014452193458143426 -0.0021271846131461648 
-0.02489222378472974 -0.002620296061743182 0.02601058941447535 0.05483000564669048 -0.01909077025322434 -2.666349571212747E-4 -0.01478218656712745 -0.0020116395889593105 -0.010656749659901732 -0.007212861978613978 
0.003733209321181825 -0.012924457977035715 0.08412327886685218 0.06394289729394136 -0.029181766835121543 -0.010299657821498075 -0.07047917089877 -0.01638668827377286 -0.0490399680256671 -0.02159918516724087 
0.09324992708019633 -0.053362537707491164 0.11772232027686284 -0.0045547526427981095 -0.0016203149128656154 -0.09306503030085782 -0.11652538355281317 -0.06642756970535284 -0.1306220495436549 -0.0717578525786657 
0.13150061972656987 -0.10871783421671158 0.14423702012350245 -0.08611186060067084 0.06931230519034802 -0.10938314987054537 -0.08075749660501189 -0.11691393326018971 -0.16911735609347428 -0.09645500325719486 
0.15548746798743343 -0.13987220687263194 0.1301097457061983 -0.129533977271707 0.14118664491186042 -0.20483520989304385 0.017895939700501358 -0.14339657643115383 -0.09016809833232087 -0.05517941522454521 
0.18838886118536508 -0.1545241841737924 0.116510611173634 -0.19474768526431957 0.15833630460355733 -0.2673225613858371 0.10465349890077547 -0.16142745515042284 0.0578792979390446 0.022304780922691038 
0.19806375006917157 -0.1562304143915743 0.09837721294634065 -0.2936337827616849 0.08715184938128165 -0.29351110242879397 0.1665016006114026 -0.1755246688469387 0.1700609357696811 0.07403762036950343 
0.12244361039376736 -0.11757126999767052 0.0840489930039898 -0.36095819730075035 -0.0034208371775585234 -0.3214609931508786 0.24630005564939922 -0.1998768469466307 0.19379566967474698 0.10969464127413658 
-0.09692712958366136 -0.07317899250398019 0.11795885839021229 -0.37869311908903874 -0.013592705180333607 -0.2958780970414512 0.20739826395478053 -0.17611180417567557 0.27078972173046717 0.0890807234231759 
-0.29807262785855176 0.0878989255435492 0.13515316116211237 -0.3788280614683948 0.058070646112293026 -0.25842834847776547 0.06486775046375172 -0.1315575359017425 0.2912535256079163 0.010837266528765759 
-0.4183259798371269 0.2615446076941145 0.07244283255464863 -0.43575283280055005 0.16723016540022395 -0.24459136025210115 -0.042619877841345646 -0.05109118400047722 0.036215401805760446 -0.11163356096387057 
-0.43266980156783097 0.21824232253399284 0.06419254840054975 -0.4145685982071596 0.26937138665192967 -0.21116704198055264 -0.09787571114739234 0.032707529449260524 -0.09267802108030693 -0.12796552216690893 
-0.34376356326053203 -0.025671418702057344 0.14184595315247514 -0.2319339948081717 0.2661894203670554 -0.14067696556229706 -0.15086155925737005 0.05739263851708858 -0.06848296568130705 -0.007247833733078214 
-0.20808845241634444 -0.20757752476985866 0.1388381415817916 -0.040071568983993645 0.18620983007151998 -0.05501914329626898 -0.15273896210781648 0.005445521656580719 -0.0504665235660442 -0.004427135293791085 
-0.07655630840018256 -0.27500042895705656 0.07109968153912188 0.07328571057084773 0.09923055089467067 -0.013729856002168733 -0.061820146206132395 0.007601070466575788 -0.12676716035582936 -0.03985359957294935 
-0.024828035101536833 -0.24575034149087202 -0.0029625573584156433 0.10277205848718808 0.03752168980323717 -0.019201169767231897 0.04519808241971193 0.01585509242586418 -0.1727260620927629 -0.10139321173821358 
-0.018643387266174528 -0.18488616267729566 -0.051960427646103674 0.13236307227045174 -0.05565603496119356 -0.06354045472466294 0.09567836283661621 -0.035969401104645124 -0.17630114462054422 -0.15040630357080564 
-0.026309871296341006 -0.1367930166747272 -0.014569569504770901 0.11468889187452674 -0.0983911687750345 -0.07272091008454296 0.09258968995492804 -0.06850318957048863 -0.1548228869021796 -0.15610438786437408 
0.001148466946308249 -0.09839906707841106 0.03078280318949088 0.12972143267673242 -0.11111067610890406 -0.05949315668987853 0.07878790706477533 -0.0764515866069291 -0.14997548211733147 -0.16093479123543547 
0.043269178668732935 -0.07094466280868361 0.06484596523190007 0.0842320646742784 -0.11018403778513874 -0.04426583945978678 0.04667329933624306 -0.07156110419520635 -0.12028698213550928 -0.1327908449229814 
0.029925310543899384 -0.051435071452952966 0.10901927036777298 0.0016481127464415748 -0.07286147730132833 -0.0013758537210069764 0.004004692139755577 -0.049065806287758786 -0.07090713852759888 -0.09484394230243226 
0.003773530929006604 -0.030907190589910045 0.15247134403601892 -0.03976068211395748 -0.04618840126317974 0.007048813682953632 -0.040901823838619136 -0.022300767193803497 -0.03507866212173933 -0.05277014430224429 
-0.01127943357201422 -0.016258829048800133 0.1165236087816478 -0.021162133248871583 -0.02421467443967645 -0.011343647936351307 -0.044346757825178246 -0.00577937443160452 -0.02426364052130922 -0.014941507698487875 
-0.0028920046061031426 -0.0037374044202244908 0.026034961940954057 -0.003885220949243546 -0.004293622323997841 -0.003996841723800424 -0.018433000596759477 -4.904269389959514E-4 -0.005433607979917545 -0.0032307142673786726 
4.30548253861688E-4 -2.394679471315757E-4 0.001540342536473018 -1.6912520838583583E-4 -7.877082702599024E-4 -2.0084743332795466E-4 -0.0015228491035528544 -1.535802540631878E-4 -2.1807012097692003E-4 -2.8303254851547995E-4 
-1.2981211954387675E-5 -1.7101928378211358E-5 -1.0478238094800071E-5 -8.475080624419299E-5 -1.696908414349971E-4 -4.829878275277089E-5 -1.362896202402855E-5 1.3033345826904343E-4 -3.459578270443059E-5 1.6837784096826328E-4 
